{"state_dim": 104, "action_dim": 100, "hidden_dims": [256, 256], "layers": {"linear0": {"weight": [[-0.07861709594726562, 0.015464644879102707, 0.05245939642190933, 0.06874790787696838, -0.12346385419368744, 0.009179860353469849, -0.07666421681642532, -0.03659482300281525, 0.03441062197089195, -0.0757833793759346, 0.0021882224828004837, -0.11368894577026367, 0.1033051386475563, 0.05751300975680351, 0.004355543293058872, 0.02328108437359333, -0.10085208714008331, 0.03209578990936279, -0.06887488812208176, -0.07436724007129669, 0.02729526348412037, -0.06952383369207382, -0.07311511039733887, -0.017144953832030296, 0.08810663968324661, -0.08850918710231781, -0.12175007164478302, 0.03681255877017975, 0.06951643526554108, -0.024007722735404968, 0.03862025961279869, -0.01412292756140232, -0.04435860365629196, -0.10473420470952988, 0.12225139886140823, 0.0634419396519661, 0.004136031959205866, 0.05318527668714523, -0.0908803939819336, -0.03254519775509834, -0.00896412506699562, 0.06938416510820389, 0.04621497914195061, -0.1170581579208374, -0.04701261222362518, -0.014185399748384953, -0.08450330793857574, -0.047818005084991455, 0.039728134870529175, 0.10603617131710052, 0.09973935782909393, -0.019228555262088776, 0.07641974836587906, -0.10056369751691818, 0.038955431431531906, -0.03526289016008377, -0.054553572088479996, -0.0964706763625145, 0.03638380393385887, -0.047492362558841705, 0.02985535003244877, 0.11776144057512283, 0.11953804641962051, 0.05838944390416145, 0.04267450422048569, 0.03229649364948273, -0.09869172424077988, -0.013264062814414501, -0.09764991700649261, -0.084079310297966, -0.05819430202245712, -0.034145478159189224, 0.06941284984350204, 0.07969316840171814, 0.07225583493709564, 0.11910419911146164, 0.001465272274799645, -0.11725006997585297, 0.06457739323377609, -0.05961614102125168, -0.03461526334285736, -0.06493302434682846, 0.009722026064991951, -0.02473190613090992, 0.057166170328855515, -0.09831449389457703, 0.0598113127052784, -0.05673816800117493, 0.08830247074365616, -0.0769539549946785, -0.07313104718923569, 0.09886477142572403, 0.0004449253319762647, -0.08811667561531067, -0.02777128480374813, -0.04308529198169708, 0.10328735411167145, -0.08707121759653091, -0.07239531725645065, -0.03793156519532204, -0.09360020607709885, 0.04342419654130936, -0.03472421318292618, -0.11585304141044617], [-0.0750536248087883, -0.012393179349601269, -0.053687602281570435, -0.01400819979608059, -0.006323203444480896, -0.051142167299985886, 0.1232268437743187, -2.4579007003922015e-05, -0.11021619290113449, -0.044440966099500656, 0.014970348216593266, -0.06286735087633133, 0.1226472333073616, -0.08532446622848511, -0.004532520193606615, -0.0060925353318452835, -0.02453511208295822, 0.05423586070537567, -0.022394711151719093, 0.036059632897377014, -0.11432801187038422, -0.014148610644042492, 0.08488371968269348, 0.0643615871667862, -0.02868805080652237, -0.10962799191474915, -0.11215708404779434, -0.07242108881473541, 0.02612457238137722, 0.08611582219600677, -0.015648843720555305, 0.0447869747877121, 0.006873606704175472, -0.030141720548272133, 0.031092369928956032, 0.11837612837553024, 0.048966579139232635, -0.10866577923297882, -0.06484652310609818, 0.02352122776210308, -0.11927998811006546, -0.10635291785001755, 0.011087936349213123, 0.0009827071335166693, 0.09716431796550751, -0.055300116539001465, 0.07113916426897049, -0.04533063992857933, -0.04334971681237221, -0.012673773802816868, 0.07463564723730087, 0.11328021436929703, -0.08172747492790222, -0.07799594849348068, 0.022314205765724182, -0.11858093738555908, -0.02316582389175892, -0.025703446939587593, -0.012286636047065258, -0.04801088199019432, 0.07852812856435776, 0.0983521044254303, -0.09437704086303711, 0.06299056857824326, -0.06233174353837967, -0.06479165703058243, 0.04546067491173744, -0.01987587660551071, -0.011427871882915497, -0.042445942759513855, 0.09911118447780609, -0.04643479734659195, 0.01479711290448904, -0.10324687510728836, 0.10278274863958359, 0.09288087487220764, -0.09065614640712738, 0.04618523642420769, 0.10100310295820236, 0.10051020979881287, -0.025646774098277092, 0.09842681139707565, 0.12268909066915512, -0.010897115804255009, 0.027106424793601036, 0.0162004716694355, -0.08590100705623627, -0.042514510452747345, 0.11238505691289902, 0.04442153498530388, 0.0853743776679039, -0.06831535696983337, 0.051726896315813065, -0.06338301301002502, -0.05763322114944458, -0.020449332892894745, -0.09286370128393173, 0.005648311693221331, 0.02772127278149128, 0.03870784491300583, -0.015549471601843834, 0.021136056631803513, -0.11027442663908005, 0.08932209014892578], [0.11804434657096863, -0.08018047362565994, 0.06411078572273254, -0.10130061209201813, -0.03381718695163727, 0.10411837697029114, -0.007943198084831238, 0.018274087458848953, 0.11358539760112762, -0.055988859385252, 0.09791043400764465, -0.050348054617643356, 0.11075876653194427, -0.035153828561306, -0.029532557353377342, -0.024074049666523933, -0.11648931354284286, -0.04129502549767494, 0.1196167916059494, -0.02260568179190159, -0.04284440353512764, -0.11252473294734955, -0.08341080695390701, 0.09867943078279495, 0.10685436427593231, 0.07300198078155518, -0.056657616049051285, -0.10282033681869507, 0.09545733034610748, 0.06837417185306549, -0.044794488698244095, 0.008664886467158794, -0.015180607326328754, -0.04115363955497742, 0.10626450926065445, 0.022762969136238098, -0.101521335542202, -0.015003331936895847, 0.08967345952987671, 0.07661142945289612, 0.026900818571448326, -0.10805048048496246, 0.11527823656797409, 0.0036505721509456635, 0.10578577220439911, 0.08234842866659164, -0.059599921107292175, 0.052892670035362244, 0.08136285096406937, 0.010060333646833897, -0.028728598728775978, -0.12219814211130142, 0.0030471559148281813, -0.004429462365806103, 0.0248624999076128, 0.08568551391363144, 0.03546273335814476, -0.05640067532658577, 0.005648505408316851, 0.011923170648515224, 0.11138417571783066, -0.10979104042053223, 0.12181654572486877, 0.11768057197332382, -0.011127348989248276, -0.028941115364432335, -0.0935153141617775, 0.10105881839990616, -0.007082322146743536, -0.06668024510145187, -0.07076333463191986, -0.06992319971323013, -0.007368320133537054, 0.01569298282265663, 0.08955715596675873, 0.09951744973659515, -0.09087338298559189, -0.056807052344083786, -0.10381738096475601, -0.11127109825611115, -0.10628288239240646, -0.015200973488390446, -0.10961081087589264, 0.065736323595047, -0.007716262247413397, 0.12251540273427963, 0.07496155798435211, 0.02977759949862957, 0.010581026785075665, -0.03381840139627457, -0.11094885319471359, -0.07448284327983856, 0.09795387834310532, 0.011302739381790161, 0.08978525549173355, -0.011526985093951225, 0.0189798716455698, -0.041530657559633255, 0.12342102825641632, 0.025514233857393265, -0.010664145462214947, 0.07925410568714142, 0.12405002117156982, 0.043171800673007965], [-0.06218467280268669, -0.11353850364685059, 0.002171540865674615, 0.04015948995947838, -0.11977164447307587, -0.11836963146924973, 0.0672304704785347, -0.01871260441839695, -0.09076116979122162, 0.0003114597639068961, -0.1031411811709404, -0.0430213026702404, -0.06558579951524734, 0.03782055526971817, 0.10718069225549698, 0.07830753177404404, 0.008197970688343048, -0.013306038454174995, -0.08524318784475327, 0.11738336086273193, 0.12215512990951538, 0.03393756225705147, -0.028827616944909096, -0.08199276030063629, 0.04640134796500206, 0.03269456326961517, -0.07018151134252548, -0.03903539851307869, -0.02317756600677967, 0.0764867290854454, -0.06696794927120209, -0.0041307671926915646, -0.08912964910268784, -0.007260967046022415, -0.046249423176050186, 0.02237723395228386, -0.0004869145341217518, 0.004120631609112024, 0.055343758314847946, -0.08602360635995865, -0.09930701553821564, 0.11061891913414001, 0.10773521661758423, 0.01750652678310871, -0.0896175280213356, -0.05177047476172447, 0.01634998619556427, 0.1177838072180748, 0.032732248306274414, -0.060718122869729996, -0.11988392472267151, -0.02830125391483307, 0.03612964600324631, -0.10495865345001221, 0.05667414516210556, 0.07343582063913345, 0.08777890354394913, -0.12233636528253555, 0.05879584327340126, 0.09410646557807922, -0.10195453464984894, -0.052499011158943176, -0.03228380158543587, 0.12350645661354065, 0.02213270775973797, 0.002504622330889106, 0.014780382625758648, -0.09288619458675385, -0.09253473579883575, 0.12187587469816208, 0.041631732136011124, 0.07197988033294678, 0.05394802242517471, 0.10455536842346191, -0.07393594831228256, 0.02276851423084736, -0.07019633054733276, 0.023163044825196266, -0.021255308762192726, -0.0789479985833168, 0.05398700386285782, 0.02840186096727848, 0.023164799436926842, 0.05671444162726402, 0.06043243780732155, 0.03757935017347336, -0.08216141164302826, -0.09351179003715515, 0.060838356614112854, 0.10857311636209488, -0.11822588741779327, 0.00188733940012753, 0.0018610437400639057, -0.0016620323294773698, -0.011515343561768532, -0.020884238183498383, 0.06155087798833847, 0.027866531163454056, -0.011246898211538792, -0.011846577748656273, 0.09819886088371277, -0.06599822640419006, -0.0677175298333168, 0.0334719642996788], [0.03069200925529003, -0.1066017597913742, -0.051063597202301025, -0.09505271166563034, 0.08999746292829514, -0.019024191424250603, 0.10809075832366943, 0.04562131315469742, -0.07326090335845947, -0.027265088632702827, 0.09243252128362656, 0.025374317541718483, 0.06527727842330933, -0.1057865172624588, -0.07157929986715317, -0.0620991513133049, 0.006913122721016407, 0.016270775347948074, -0.08112720400094986, -0.06632288545370102, 0.09786062687635422, 0.009900826960802078, 0.1031559631228447, -0.0021772023756057024, -0.08275038003921509, 0.11678625643253326, 0.04449853673577309, -0.1142391636967659, 0.12295901775360107, 0.024190550670027733, -0.050715964287519455, -0.04998113960027695, 0.09009794890880585, 0.0015478201676160097, 0.06432512402534485, 0.007129061967134476, 0.019037825986742973, -0.007351656444370747, -0.023907124996185303, 0.00934196263551712, 0.10447322577238083, -0.010903512127697468, 0.06912112981081009, -0.02312455140054226, 0.10072262585163116, 0.07294156402349472, 0.012735811993479729, -0.0004987076972611248, 0.029094664379954338, 0.0900779590010643, 0.10642929375171661, -0.08310993760824203, 0.12274293601512909, 0.1032036542892456, 0.08591895550489426, 0.09397829324007034, 0.015543472953140736, -0.010887772776186466, 0.12025607377290726, 0.06036071851849556, -0.08044205605983734, -0.12301713973283768, -0.12326716631650925, -0.10441527515649796, -0.05501865595579147, -0.04850606992840767, 0.08119180798530579, -0.0722280815243721, -0.05485045909881592, 0.015737710520625114, 0.07148429751396179, -0.04408251866698265, 0.06427552551031113, -0.053482770919799805, 0.02212347276508808, -0.10604141652584076, 0.04296717047691345, 0.0060568745248019695, 0.06952306628227234, -0.028524968773126602, 0.06352733820676804, 0.010790282860398293, 0.09604288637638092, -0.009000667370855808, 0.055669043213129044, 0.07906708866357803, -0.08779089152812958, -0.09074930846691132, 0.060103945434093475, 0.005331635475158691, 0.12087526172399521, 0.03218189254403114, 0.06923484802246094, 0.05580396577715874, 0.11995469778776169, 0.044889725744724274, 0.02379879355430603, 0.005748373456299305, 0.07441650331020355, 0.006401700899004936, 0.050227634608745575, -0.06200838461518288, -0.02663877047598362, 0.12547050416469574], [0.04636089876294136, 0.011211919598281384, -0.09298296272754669, -0.12100855261087418, 0.07167821377515793, -0.01684536784887314, 0.09401986002922058, 0.0646304041147232, 0.04697844386100769, -0.11782433092594147, -0.08001919835805893, 0.12121758610010147, 0.031186887994408607, 0.11433547735214233, 0.10490714013576508, 0.09067537635564804, 0.11327456682920456, -0.06775730848312378, -0.03750096261501312, -0.11484746634960175, -0.017426853999495506, -0.10079604387283325, 0.04352203756570816, 0.08135605603456497, -0.11035220324993134, -0.11039848625659943, 0.045048560947179794, 0.10589373111724854, -0.0786542147397995, 0.09862281382083893, -0.04468121379613876, 0.08356726169586182, 0.10983356088399887, 0.06826696544885635, -0.025792138651013374, 0.08391916006803513, 0.11764542013406754, -0.04583439603447914, 0.12088897079229355, 0.10765863955020905, 0.054837666451931, 0.11726462841033936, -0.0018475137185305357, 0.11450694501399994, -0.01840205304324627, 0.12316804379224777, 0.10027372092008591, -0.035849351435899734, -0.020072875544428825, 0.07515633851289749, 0.08622097969055176, 0.06476113945245743, -0.03373768553137779, 0.09418302774429321, 0.11513405293226242, 0.04560374468564987, 0.0334194153547287, -0.04163148254156113, 0.10163429379463196, -0.013803222216665745, 0.05739693343639374, -0.09458499401807785, -0.04013488069176674, -0.028047243133187294, 0.023556306958198547, 0.005856337025761604, 0.10270369052886963, 0.009324519895017147, 0.06279341876506805, -0.1051366925239563, -0.051815301179885864, -0.06561920791864395, 0.0896741971373558, -0.08417291939258575, 0.10666711628437042, 0.0349360816180706, 0.12229742854833603, 0.025179056450724602, -0.008955267257988453, 0.0017022215761244297, -0.10322126001119614, 0.016470827162265778, 0.08575282245874405, 0.04552755877375603, -0.10589712858200073, 0.01557321660220623, 0.07628022879362106, -0.02184496819972992, -0.021554386243224144, 0.013986347243189812, -0.057854048907756805, 0.11069540679454803, -0.0005656620487570763, -0.08615221083164215, 0.025700272992253304, -0.12012605369091034, 0.05043114721775055, 0.11798030138015747, 0.07373381406068802, 0.07274823635816574, -0.10849516838788986, -0.08587776869535446, -0.11357592791318893, 0.042591195553541183], [-0.023765649646520615, 0.12368272244930267, 0.027482718229293823, 0.0030149389058351517, -0.07594795525074005, -0.12295355647802353, 0.04796518757939339, -0.12445895373821259, -0.07523213326931, 0.07623019814491272, -0.0025311168283224106, -0.04330064728856087, 0.006963726133108139, 0.02675919607281685, -0.1134720966219902, 0.0419379398226738, 0.05416763201355934, -0.06233253702521324, 0.09981690347194672, 0.011487184092402458, 0.07375343888998032, 0.051525216549634933, 0.0207059308886528, 0.0057034543715417385, 0.08936797827482224, -0.040070950984954834, 0.039996590465307236, 0.002784217009320855, -0.06764596700668335, 0.0014781735371798277, -0.10532528907060623, 0.018056975677609444, -0.08990409225225449, 0.0456402525305748, -0.012303115800023079, -0.09313444793224335, -0.04657705873250961, 0.03928326070308685, -0.06214938685297966, -0.05671349912881851, -0.00819284189492464, -0.03389997035264969, 0.12323468178510666, -0.09439022839069366, 0.12143886089324951, 0.0352809801697731, 0.08920338749885559, 0.07180498540401459, -0.03760815039277077, 0.0860171690583229, 0.04531512409448624, 0.01917126215994358, -0.11777368187904358, 0.05855637788772583, -0.05302644148468971, 0.046329695731401443, 0.03643808886408806, -0.10480079799890518, 0.08046626299619675, 0.03587066009640694, 0.11118761450052261, -0.026276949793100357, -0.05133954808115959, 0.013958624564111233, -0.019627239555120468, 0.09574809670448303, -0.12328648567199707, -0.0026074168272316456, 0.10703058540821075, -0.01971949264407158, 0.027473587542772293, 0.0104909623041749, 0.03541899099946022, 0.003910571336746216, 0.028162121772766113, 0.060472823679447174, -0.06370242685079575, -0.11541055887937546, 0.059765394777059555, -0.08146139979362488, 0.010647550225257874, -0.029698101803660393, -0.04398863762617111, 0.011365940794348717, -0.10283380001783371, 0.057242054492235184, 0.020847627893090248, -0.01903742551803589, 0.056187644600868225, -0.08579045534133911, 0.07192358374595642, -0.05592695251107216, -0.08622636646032333, 0.0667545348405838, 0.058583106845617294, -0.020485946908593178, -0.08454860001802444, 0.01850425824522972, 0.11730778962373734, 0.01622937060892582, 0.018188638612627983, 0.020665833726525307, 0.028755830600857735, 0.1235477551817894], [-0.1133430227637291, -0.11506111919879913, 0.03234683349728584, -0.10511269420385361, -0.06898757070302963, 0.10797888040542603, -0.08682091534137726, -0.002640085993334651, 0.05548391118645668, -0.04487297311425209, -0.05910644307732582, 0.009348644874989986, -0.08800725638866425, 0.05897863209247589, -0.056904155761003494, 0.10537192970514297, -0.09419801086187363, 0.10770583152770996, -0.07623889297246933, -0.09506568312644958, -0.058505162596702576, -0.017466716468334198, 0.11460868269205093, 0.07367909699678421, 0.051433105021715164, 0.06310855597257614, -0.04942109435796738, 0.08799722045660019, -0.07757516950368881, 0.11853940039873123, -0.05706116184592247, 0.11474838107824326, 0.06139365956187248, 0.03635526821017265, 0.04400797188282013, 0.0918114185333252, -0.039552513509988785, -0.10003817081451416, 0.08702757954597473, -0.10523144900798798, 0.07996822148561478, -0.11235126107931137, 0.08492714166641235, -0.07510071247816086, -0.041839394718408585, -0.041564010083675385, 0.046624232083559036, 0.07110987603664398, 0.10353926569223404, -0.0037073646672070026, -0.09939571470022202, -0.05475771799683571, -0.08691719174385071, 0.038112055510282516, 0.06872133910655975, 0.019894719123840332, -0.09972967952489853, 0.02673213742673397, 0.11114371567964554, 0.11778092384338379, 0.08939800411462784, 0.05181703343987465, 0.02469240315258503, -0.018476691097021103, 0.0309640783816576, 0.03598294034600258, 0.038623593747615814, -0.04897464066743851, 0.04181641712784767, -0.060747984796762466, -0.07156240195035934, 0.009085713885724545, 0.04513319581747055, -0.12147607654333115, 0.08514565974473953, 0.07099098712205887, -0.03933146223425865, 0.003687028307467699, 0.099058598279953, -0.026913369074463844, -0.09908071905374527, 0.01147285383194685, 0.048027679324150085, -0.008545457385480404, 0.010090607218444347, -0.07934123277664185, 0.06974432617425919, 0.017756320536136627, 0.012985460460186005, -0.0002519774134270847, -0.02938961237668991, -0.00025967834517359734, -0.11812429130077362, -0.013193528167903423, -0.02787119522690773, -0.050157926976680756, -0.09880084544420242, 0.027890389785170555, 0.06686621904373169, 0.07875114679336548, 0.11451773345470428, -0.10116981714963913, -0.04110277444124222, -0.09565888345241547], [0.053154051303863525, 0.0514070950448513, -0.05413634330034256, 0.066184401512146, 0.051868241280317307, -0.07607089728116989, 0.052619025111198425, -0.07557275146245956, -0.031848371028900146, -0.07436729967594147, -0.10323402285575867, -0.014933180063962936, 0.052360981702804565, -0.01582683064043522, -0.009314687922596931, -0.11715071648359299, 0.0554497130215168, 0.10242761671543121, -0.05216158553957939, 0.03713791444897652, -0.03563699126243591, 0.12066806852817535, -0.08366551250219345, -0.10002502053976059, 0.09866107255220413, 0.0989653542637825, 0.06352390348911285, 0.07065915316343307, -0.11344766616821289, 0.11816250532865524, 0.09470237791538239, 0.11849075555801392, 0.06871087849140167, -0.039777062833309174, -0.09743133187294006, 0.05959662050008774, 0.019597960636019707, 0.061253052204847336, 0.04755626246333122, -0.06840502470731735, -0.10582751035690308, 0.09449206292629242, 0.123752661049366, -0.10656578838825226, 0.0024143639020621777, 0.025826822966337204, 0.11262283474206924, -0.02950787916779518, 0.11004593223333359, 0.017145685851573944, 0.10118510574102402, 0.02454773336648941, -0.1105654239654541, 0.005968155339360237, -0.013874434866011143, -0.05237746611237526, 0.06473829597234726, 0.1026117205619812, -0.020406851544976234, 0.08109001815319061, 0.0402563214302063, 0.08507274091243744, -0.11812975257635117, -0.03970605880022049, -0.03472872078418732, -0.06116801127791405, -0.07775649428367615, 0.09424047917127609, -0.061011847108602524, 0.02255527302622795, 0.08750073611736298, 0.033646877855062485, -0.014149591326713562, 0.10804368555545807, -0.04110977426171303, -0.035982634872198105, 0.055122945457696915, 0.05366034060716629, 0.09855484962463379, -0.067287877202034, 0.06311152130365372, -0.06639697402715683, -0.05100682005286217, -0.08109550923109055, -0.022955872118473053, -0.04903312399983406, -0.07052142173051834, -0.09046417474746704, 0.04822605848312378, 0.03145522251725197, 0.019330792129039764, 0.1201564371585846, 0.01911037601530552, 0.07499708235263824, -0.040627237409353256, -0.009823006577789783, -0.06637852638959885, 0.04354481026530266, -0.03727157786488533, 0.030810311436653137, -0.026094509288668633, 0.08876242488622665, 0.0207113865762949, 0.07158336788415909], [-0.05659441649913788, 0.0211848933249712, 0.04522652179002762, 0.0035787909291684628, -0.002001837594434619, -0.03621033579111099, -0.08357531577348709, -0.05926048755645752, -0.09911791980266571, 0.03111189231276512, 0.05144845321774483, 0.07639531046152115, -0.0909607782959938, -0.06309149414300919, -0.030395060777664185, -0.02137475460767746, -0.08243869990110397, 0.0027748397551476955, 0.10833635181188583, 0.0802437886595726, -0.0759928822517395, 0.1020638719201088, 0.08334892243146896, 0.06096281111240387, -0.05956510826945305, -0.032094281166791916, 0.012754188850522041, -0.12026046216487885, -0.03976830467581749, 0.03308995068073273, 0.11544283479452133, 0.0664215013384819, -0.025013411417603493, 0.04799557104706764, -0.11807523667812347, -0.08452638238668442, -0.0006721997633576393, -0.09430484473705292, -0.08542872965335846, -0.0717066079378128, -0.11789459735155106, 0.019388321787118912, -0.029689280316233635, 0.11556394398212433, 0.04692147299647331, 0.05182694271206856, 0.04711100831627846, -0.08100175857543945, 0.07419363409280777, -0.015883009880781174, -0.007260542828589678, -0.09124177694320679, -0.025774262845516205, 0.028138289228081703, 0.10701604932546616, -0.0650615468621254, -0.01740388199687004, -0.0205859262496233, 0.12298361957073212, 0.047027844935655594, -0.12352384626865387, -0.01668872870504856, -0.01740850880742073, 0.01023259200155735, 0.04459192603826523, -0.06105492264032364, -0.0544155091047287, -0.1145862489938736, -0.08175032585859299, 0.0018148553790524602, 0.08958818018436432, 0.05620202422142029, 0.0031232908368110657, -0.05391937866806984, 0.09557761996984482, -0.09016025811433792, 0.022905144840478897, -0.10144773870706558, -0.07869037240743637, 0.09199410676956177, 0.0658770427107811, 0.11247800290584564, -0.06084074825048447, 0.0759824588894844, -0.10950514674186707, 0.09449189156293869, 0.08649572730064392, 0.07624948024749756, 0.006231668405234814, -0.010805620811879635, -0.04268624633550644, 0.08796846866607666, -0.043073952198028564, -0.014459256082773209, -0.1127999797463417, -0.09978523850440979, -0.044772494584321976, 0.01206976268440485, -0.08352593332529068, -0.07524984329938889, 0.060332514345645905, 0.07618538290262222, -0.09067488461732864, -0.1027597114443779], [0.0041601331904530525, -0.10816735029220581, -0.08946827054023743, 0.03238605707883835, -0.09062013775110245, -0.008368786424398422, -0.0484728142619133, 0.0033239838667213917, 0.04119838774204254, 0.004964448045939207, -0.06256712228059769, 0.11879700422286987, -0.017442019656300545, -0.1061457023024559, -0.08466734737157822, -0.10530493408441544, 0.08370305597782135, 0.07035756856203079, 0.00572051340714097, 0.11391414701938629, 0.07887150347232819, 0.019938701763749123, -0.06865726411342621, 0.0027490509673953056, -0.07834546267986298, 0.04033059999346733, -0.04268155246973038, -0.02104324847459793, -0.11639999598264694, -0.002562310080975294, 0.08143377304077148, 0.04245292767882347, -0.012643487192690372, -0.07631538063287735, -0.03571554645895958, -0.05499475821852684, 0.08331708610057831, -0.09985870122909546, 0.10756807774305344, 0.0695551410317421, 0.006944451946765184, 0.010342243127524853, -0.07580681145191193, 0.0040721772238612175, 0.06914985924959183, 0.05298560485243797, 0.09469178318977356, 0.03166824206709862, -0.02527407556772232, -0.08671456575393677, 0.10178569704294205, -0.09530560672283173, 0.06250341981649399, -0.11688999086618423, -0.04723668843507767, 0.12396425008773804, 0.08477594703435898, -0.04216993227601051, -0.10829919576644897, -0.07528672367334366, 0.00472524669021368, -0.02033180557191372, -0.030180281028151512, 0.05828749015927315, 0.06251846998929977, 0.013162222690880299, 0.008316582068800926, 0.06945917010307312, 0.0007884067017585039, -0.04148576036095619, -0.011597772128880024, -0.12086806446313858, -0.028688987717032433, -0.06328805536031723, -0.01663972996175289, -0.0029798178002238274, 0.11473435908555984, 0.002632590476423502, 0.06007174029946327, 0.06587818264961243, -0.025593139231204987, 0.11085259914398193, -0.09895903617143631, 0.06727439910173416, -0.06605708599090576, -0.07989881932735443, 0.002894963137805462, 0.08466508239507675, 0.12555497884750366, -0.012449590489268303, 0.07496245205402374, -0.03066229447722435, -0.014859325252473354, -0.10298178344964981, 0.024924706667661667, -0.10384514927864075, -0.11844230443239212, 0.1084173247218132, 0.0943947285413742, 0.11825990676879883, -0.004713521804660559, 0.07567170262336731, 0.12765587866306305, -0.1122046411037445], [0.009452085942029953, 0.11174871027469635, -0.007636272348463535, 0.07403729856014252, 0.013750933110713959, 0.10841429978609085, -0.05313415080308914, -0.06965707987546921, 0.061918120831251144, -0.010548042133450508, -0.11736474186182022, 0.03329550102353096, 0.01307549700140953, 0.10030759125947952, -0.10290630906820297, -0.07527197897434235, -0.09509966522455215, -0.048532646149396896, -0.024363471195101738, 0.06672787666320801, 0.10552763193845749, 0.10191816836595535, -0.11256387829780579, -0.0219508558511734, -0.02612956240773201, 0.03765247389674187, 0.018191659823060036, -0.005438647698611021, -0.05975087359547615, 0.060208819806575775, -0.06844790279865265, 0.10600800812244415, -0.09575819969177246, -0.11271631717681885, -0.111260786652565, 0.04279516637325287, -0.06627532839775085, -0.018149644136428833, 0.053809091448783875, -0.046818334609270096, 0.09603413939476013, 0.025887347757816315, 0.0332929827272892, -0.0047229742631316185, 0.11214891821146011, 0.0958603024482727, -0.0537378266453743, -0.026085080578923225, 0.041342586278915405, 0.0032548115123063326, 0.07316437363624573, -0.0036548306234180927, 0.10571427643299103, 0.048565737903118134, 0.1102718710899353, -0.08111938834190369, 0.07662221789360046, -0.09895528852939606, 0.06336642801761627, 0.1187499538064003, -0.12463963776826859, 0.12106779962778091, 0.06447911262512207, -0.04487796872854233, -0.02422581985592842, 0.1166800856590271, 0.05247657373547554, 0.04286403954029083, -0.05328620597720146, -0.03662654757499695, -0.08135250955820084, -0.1198086366057396, 0.09802345186471939, 0.08839268237352371, 0.1219293400645256, -0.0820959135890007, 0.018739603459835052, 0.05265963077545166, -0.12383755296468735, -0.06625692546367645, -0.0037753956858068705, 0.08739045262336731, -0.043143488466739655, 0.12296273559331894, 0.09103641659021378, -0.001910269958898425, -0.03578220307826996, -0.0875515565276146, 0.06842292100191116, 0.043758172541856766, 0.12127353250980377, -0.026017561554908752, -0.034717392176389694, 0.0997675210237503, 0.10293127596378326, -0.024144301190972328, 0.11506010591983795, -0.0034200537484139204, -0.08612416684627533, 0.10646748542785645, 0.09181664884090424, 0.08082391321659088, 0.023170989006757736, -0.11279141902923584], [0.045302219688892365, -0.08960909396409988, -0.05412584915757179, -0.06515835970640182, -0.07589645683765411, 0.09309282898902893, -0.09301114827394485, -0.0008245958015322685, -0.07094932347536087, 0.028617247939109802, 0.06924695521593094, -0.1122535690665245, -0.07043417543172836, -0.0011434921761974692, 0.1075727567076683, 0.005289054475724697, -0.034018442034721375, 0.026857400313019753, -0.06746521592140198, -0.07867411524057388, 0.09461355954408646, -0.10010193288326263, 0.07316695898771286, -0.10554930567741394, -0.018924009054899216, 0.018107594922184944, 0.01336079090833664, -0.10082044452428818, -0.008099548518657684, 0.05340602621436119, 0.07066497951745987, -0.01063661091029644, 0.03494584187865257, -0.07603880017995834, -0.04202441871166229, -0.04250483959913254, -0.04175619035959244, 0.04140709713101387, -0.03932342678308487, 0.11954468488693237, 0.1092739924788475, -0.11849562078714371, -0.052633706480264664, 0.06024254485964775, -0.09683447331190109, -0.021291734650731087, -0.03293909877538681, 0.09144043177366257, -0.0810139924287796, 0.07838214933872223, -0.006087170448154211, -0.11779042333364487, 0.07530589401721954, 0.11044079810380936, -0.021216435357928276, -0.11934477090835571, -0.09106334298849106, -0.0658145323395729, 0.016656730324029922, 0.03854941949248314, 0.11848551034927368, 0.029249126091599464, 0.011228666640818119, 0.11413686722517014, 0.01594793237745762, -0.09190434217453003, -0.11187363415956497, -0.10554968565702438, 0.0011278062593191862, -0.06494798511266708, -0.10576441884040833, -0.11058400571346283, -0.020352670922875404, 0.04284031316637993, 0.03457047417759895, 0.12330035865306854, -0.06535319983959198, 0.030379969626665115, 0.04529256746172905, -0.010060619562864304, 0.11745591461658478, 0.02482185885310173, 0.11590436846017838, -0.11230985820293427, 0.034292072057724, 0.027821362018585205, -0.08854800462722778, 0.09245464950799942, 0.021752728149294853, -0.0175187885761261, 0.03393728658556938, -0.038367800414562225, 0.020786819979548454, -0.02847849205136299, -0.04846727475523949, -0.08262056112289429, 0.07660375535488129, -0.017444640398025513, -0.049929097294807434, 0.09130172431468964, -0.06764458864927292, 0.04584675654768944, -0.025461969897150993, -0.04864547774195671], [0.08230208605527878, -0.023573346436023712, 0.12281955778598785, -0.11013196408748627, 0.044265445321798325, 0.013389122672379017, -0.04949752613902092, 0.0023934380151331425, 0.04278067871928215, -0.05909283086657524, -0.050973355770111084, 0.08722487092018127, 0.059763651341199875, -0.07002456486225128, -0.07035883516073227, -0.08063600957393646, 0.1132802814245224, 0.004368171561509371, 0.020020993426442146, 0.12179143726825714, 0.023329390212893486, 0.09182162582874298, -0.04779241234064102, 0.0264583732932806, -0.040940165519714355, -0.004747499246150255, 0.01623697020113468, 0.051269520074129105, 0.05720913037657738, 0.08900082111358643, 0.06556947529315948, -0.10332222282886505, 0.06497272849082947, 0.0684325248003006, -0.049434345215559006, -0.01579396426677704, 0.036951228976249695, 0.03731062635779381, 0.012217127718031406, -0.00370874535292387, -0.017625736072659492, 0.11367128044366837, 0.11072125285863876, 0.06609757989645004, -0.09510660916566849, 0.011679977178573608, -0.11010211706161499, 0.06226184219121933, 0.019581418484449387, -0.0984063595533371, -0.026038257405161858, -0.012976246885955334, 0.11535058915615082, -0.0583343431353569, -0.07234682887792587, 0.07516040652990341, -0.019980695098638535, -0.03710193932056427, -0.10104089975357056, 0.11665264517068863, -0.06585341691970825, 0.016320321708917618, 0.06384386122226715, -0.0785018801689148, -0.07793671637773514, 0.0925375446677208, 0.09578102827072144, -0.08571111410856247, 0.08722678571939468, -0.1190466359257698, 0.04709871485829353, -0.028842320665717125, -0.06464270502328873, -0.11399836093187332, 0.11968264728784561, -0.046047862619161606, -0.04121767729520798, -0.048144035041332245, -0.0756949633359909, 0.10266285389661789, 0.031767409294843674, 0.056445494294166565, 0.04007129371166229, -0.09040088206529617, -0.02521158568561077, 0.07901223003864288, -0.0850256159901619, -0.01694396138191223, -0.03029290772974491, 0.007925677113234997, -0.08579820394515991, -0.08031020313501358, -0.08347571641206741, 0.11897236853837967, 0.09002119302749634, 0.09399981051683426, -0.008334644138813019, -0.11691363900899887, 0.06246635317802429, -0.02780349925160408, 0.006937209516763687, 0.02635965123772621, 0.08168623596429825, -0.02312142215669155], [-0.06668248027563095, -0.03361275792121887, 0.04743059724569321, -0.012987149879336357, 0.03398754820227623, 0.06350839138031006, -0.07015644758939743, -0.08321361988782883, -0.10892057418823242, 0.010978435166180134, 0.11090391874313354, 0.08202779293060303, -0.008841902017593384, -0.03372350335121155, 0.09492356330156326, -0.11851716786623001, -0.027211535722017288, 0.038844551891088486, -0.06199615076184273, -0.04819655790925026, 0.026885341852903366, -0.07714138925075531, -0.06805884093046188, 0.03049352392554283, -0.005680601112544537, -0.0826646238565445, 0.11479349434375763, 0.0007079907809384167, 0.09946946799755096, 0.11482435464859009, -0.10075751692056656, 0.1179473027586937, -0.07968657463788986, 0.06277035921812057, -0.025506051257252693, 0.07080795615911484, 0.0881393626332283, 0.091377392411232, -0.012980804778635502, -0.020956268534064293, -0.10989763587713242, -0.12174771726131439, -0.01683165319263935, 0.02305431105196476, -0.1047714576125145, -0.07085151970386505, 0.05241229385137558, -0.0028952504508197308, -0.0931948572397232, -0.0398106686770916, 0.0035008748527616262, 0.048323217779397964, -0.12127617746591568, 0.06233709305524826, 0.06447279453277588, -0.03785865753889084, -0.062465451657772064, -0.019007524475455284, -0.06355620175600052, -0.03465532138943672, 0.07525923103094101, -0.034616027027368546, 0.048576779663562775, 0.03862723335623741, -0.08852675557136536, -0.005863988306373358, 0.03676556423306465, 0.025086553767323494, -0.05233963951468468, -0.06139384210109711, -0.1153295636177063, 0.0030165414791554213, -0.0753757506608963, -0.021966587752103806, 7.96697786427103e-05, -0.0829225555062294, 0.003751087002456188, -0.0019800865557044744, 0.04444494843482971, -0.02866104617714882, -0.023770462721586227, 0.021989593282341957, 0.047080401331186295, -0.04954919219017029, 0.007882014848291874, -0.08735192567110062, 0.08060134947299957, -0.07680263370275497, 0.05902697518467903, -0.003020139876753092, 0.06114358827471733, 0.06385190784931183, 0.09639174491167068, 0.03127418830990791, 0.05304590240120888, 0.0041562533006072044, -0.078797347843647, 0.0035633821971714497, -0.04938117414712906, 0.11236364394426346, 0.06023751571774483, -0.12646059691905975, 0.024326741695404053, -0.0949077308177948], [0.07364483177661896, -0.12043901532888412, -0.10156898200511932, -0.07152871787548065, -0.11644250154495239, -0.04383691027760506, 0.0038173566572368145, 0.0005791226867586374, -0.08502309769392014, 0.083235003054142, -0.021219542250037193, 0.11469907313585281, -0.09615222364664078, 0.09120684862136841, 0.11686711758375168, 0.10039667785167694, -0.06919978559017181, 0.013759966939687729, -0.007647156249731779, 0.05162210017442703, 0.11030998080968857, 0.0835491344332695, 0.07870624959468842, -0.06113680452108383, -0.10983575135469437, -0.02989322878420353, 0.008116311393678188, -0.06710201501846313, 0.004325149580836296, 0.07587338238954544, 0.05095983296632767, 0.02190106175839901, -0.06923418492078781, 0.05222386121749878, 0.08303525298833847, 0.12249824404716492, -0.07818962633609772, -0.048541661351919174, 0.03087863326072693, -0.08685417473316193, 0.09013715386390686, -0.07205039262771606, -0.11748121678829193, -0.04942415654659271, 0.028420401737093925, -0.1134992316365242, 0.06123111769556999, -0.06113923341035843, 0.02731170319020748, -0.027754899114370346, 0.05028184875845909, -0.06979669630527496, 0.047192107886075974, -0.11067551374435425, 0.06043108180165291, -0.00154415937140584, 0.0015720261726528406, 0.07660605013370514, -0.00029664396424777806, 0.04479801282286644, 0.04698961600661278, -0.03461579233407974, 0.036059267818927765, 0.004495477769523859, -0.011465771123766899, 0.04637659341096878, 0.017930125817656517, -0.05864890292286873, -0.07812413573265076, 0.0008149140048772097, 0.09539896249771118, -0.11547289043664932, 0.09719104319810867, -0.00973017793148756, 0.08472941070795059, 0.01766960695385933, -0.11148212105035782, 0.03375755250453949, -0.11291512846946716, 0.08836133778095245, -0.05525948852300644, -0.07818399369716644, -0.05867448449134827, 0.1046053022146225, -0.024894926697015762, -0.09793388098478317, 0.11249535530805588, 0.060492925345897675, -0.007783845067024231, -0.05056800693273544, -0.06977523863315582, -0.12030170857906342, -0.10534719377756119, -0.06950224936008453, 0.111320361495018, 0.09983862191438675, -0.04284029081463814, 0.029544996097683907, 0.08708177506923676, -0.002867737552151084, -0.10860799252986908, -0.05600390583276749, -0.0983026847243309, 0.11802534013986588], [0.10582296550273895, -0.01014663651585579, 0.10121877491474152, 0.006436038296669722, -0.1129637211561203, 0.09925335645675659, -0.0015434076776728034, 0.033938102424144745, -0.07208170741796494, -0.10467413812875748, 0.00992831215262413, 0.011255563236773014, 0.006836913991719484, 0.03482355549931526, 0.10681995004415512, -0.09711138159036636, -0.09287557750940323, 0.04351257160305977, -0.061060260981321335, 0.11406230926513672, -0.0014277615118771791, -0.07103238999843597, 0.041060108691453934, 0.09159998595714569, -0.0691416785120964, 0.05919614061713219, -0.08680393546819687, -0.06774100661277771, 0.005269935820251703, 0.010282249189913273, 0.03595089912414551, 0.013291729614138603, -0.10812991857528687, -0.12181635200977325, -0.0159265398979187, 0.06697430461645126, 0.02761080302298069, 0.07399731129407883, 0.09798052906990051, -0.06547734886407852, -0.07953894883394241, -0.06553022563457489, -0.03856319934129715, -0.05489858612418175, 0.07654247432947159, 0.09426605701446533, 0.03135670721530914, 0.11321046203374863, 0.022650854662060738, -0.004965821281075478, 0.10835807770490646, -0.0424775704741478, 0.03621723875403404, -0.026216506958007812, 0.050113752484321594, -0.009888178668916225, 0.021674901247024536, -0.10799869894981384, 0.029010603204369545, 0.07408322393894196, 0.10425987094640732, -0.12212403118610382, -0.06609322875738144, 0.0855458527803421, -0.07319372892379761, -0.11131524294614792, 0.1201024278998375, 0.12224797159433365, -0.04497288540005684, 0.04603667929768562, -0.03079538606107235, 0.12159398943185806, 0.019326448440551758, 0.026041192933917046, 0.035441745072603226, 0.0024675799068063498, -0.018973806872963905, 0.08293623477220535, 0.06833513081073761, -0.0445331446826458, -0.12341755628585815, 0.08375446498394012, 0.0919116958975792, -0.04163611680269241, 0.08500410616397858, -0.08928876370191574, -0.09041886776685715, -0.025208640843629837, 0.11711692810058594, -0.04681791737675667, -0.035485826432704926, 0.05426787957549095, 0.04108968749642372, -0.09592906385660172, 0.12006978690624237, 0.008442582562565804, -0.036972999572753906, -0.06537182629108429, -0.01573243923485279, 0.10271000117063522, -0.024477139115333557, -0.02085667848587036, -0.03670452907681465, 0.04080880060791969], [-0.060886941850185394, 0.060565512627363205, -0.1095084547996521, 0.02981041930615902, -0.10064859688282013, -0.006158226169645786, 0.031348735094070435, -0.0644005537033081, -0.08886387944221497, 0.12016358971595764, 0.06497772783041, 0.06180425360798836, -0.08496030420064926, -0.07745927572250366, -0.041384074836969376, 0.09131986647844315, 0.024479685351252556, -0.07448387891054153, 0.10794591158628464, -0.03885693848133087, -0.0282586682587862, -0.021663827821612358, -0.027065107598900795, 0.07254334539175034, 0.013848500326275826, 0.03172802925109863, 0.039759956300258636, 0.11084098368883133, -0.01904219761490822, -0.001614050124771893, 0.004097688943147659, -0.010093415156006813, 0.05641021579504013, -0.11284645646810532, -0.05924183502793312, -0.021659985184669495, -0.12168379127979279, -0.011113245040178299, 0.04901593551039696, 0.059172481298446655, -0.06181957200169563, -0.10009653121232986, 0.08176565170288086, -0.041822489351034164, -0.010303827002644539, 0.07480649650096893, -0.032093219459056854, -0.060169339179992676, 0.10713128000497818, -0.112852543592453, -0.016445014625787735, -0.048327527940273285, -0.04347454756498337, -0.12372014671564102, 0.056758224964141846, -0.026184389367699623, 0.10246746987104416, -0.029750995337963104, 0.11735162883996964, 0.12360480427742004, -0.0907282829284668, -0.00019991880981251597, 0.10184812545776367, 0.04327341914176941, -0.0418446809053421, 0.009207870811223984, -0.07291659712791443, -0.047847289592027664, -0.003550696186721325, 0.12351951748132706, 0.02948365919291973, 0.09009652584791183, 0.0003785667067859322, -0.12415037304162979, 0.017380062490701675, 0.01208671648055315, -0.052377596497535706, -0.11526314169168472, 0.09759291261434555, -0.07426430284976959, 0.0596354715526104, -0.05933259055018425, 0.02757139317691326, 0.08790497481822968, 0.043151482939720154, -0.09104640036821365, -0.07852822542190552, -0.034203410148620605, -0.09802521765232086, 0.10509440302848816, -0.11355859786272049, 0.088569276034832, -0.09685379266738892, -0.03338352590799332, 0.04205060377717018, -0.04490458965301514, -0.11939533799886703, 0.04782523587346077, 0.10604331642389297, 0.10259497165679932, -0.007716211024671793, 0.10743196308612823, -0.05540404096245766, -0.12381007522344589], [-0.09489139169454575, 0.04578984156250954, 0.009100795723497868, 0.0966683179140091, 0.10426326096057892, 0.06983958184719086, -0.11289165914058685, 0.07442817836999893, -0.02770489640533924, 0.06057869642972946, -0.0186490248888731, 0.07878206670284271, 0.07987894862890244, -0.0003171139978803694, -0.0799468606710434, -0.022286301478743553, 0.020816529169678688, 0.05741703882813454, 0.07162326574325562, -0.12189833074808121, -0.006673114374279976, 0.06793931871652603, 0.06108449026942253, -0.09374695271253586, -0.01882724091410637, -0.03866367042064667, -0.10765714198350906, -0.12203189730644226, 0.08714759349822998, -0.020677242428064346, 0.0905378982424736, 0.052907221019268036, 0.01692012883722782, 0.07374269515275955, -0.052616000175476074, 0.09439380466938019, -0.034590594470500946, 0.12318156659603119, -0.04286409541964531, -0.08490343391895294, 0.0020051850005984306, 0.04146362841129303, -0.08718828111886978, 0.005555469077080488, -0.06547912210226059, 0.04465257003903389, -0.044361792504787445, 0.0883321613073349, 0.0738619863986969, -0.12334892898797989, 0.001908887643367052, -7.236925739562139e-05, -0.06457336992025375, 0.08758523315191269, 0.07873136550188065, -0.05107251927256584, 0.09069042652845383, -0.10180218517780304, -0.06247014179825783, -0.014448481611907482, 0.07757524400949478, 0.044802770018577576, -0.10183825343847275, -0.11980323493480682, 0.04574979841709137, -0.04405193775892258, -0.1159626767039299, 0.107950858771801, -0.02495868131518364, -0.014878407120704651, -0.04281921684741974, -0.026826275512576103, 4.925713437842205e-05, 0.05814734101295471, -0.04360901191830635, 0.10553853213787079, 0.06384076923131943, -0.02248857542872429, -0.004227351397275925, 0.1191801130771637, -0.0003410761710256338, 0.0004099348734598607, -0.05631033703684807, -0.021438278257846832, -0.02020222134888172, -0.07612688094377518, -0.042174145579338074, -0.0060180481523275375, -0.11355789005756378, 0.112333744764328, 0.05062004178762436, 0.002006900031119585, -0.0391392856836319, 0.06360835582017899, -0.010825859382748604, 0.06428726762533188, 0.002146749757230282, -0.12107819318771362, 0.09973951429128647, -0.031110292300581932, -0.05301613733172417, -0.058333590626716614, -0.02171947993338108, -0.098186194896698], [0.09888111799955368, 0.04676153138279915, -0.05699295923113823, 0.07336395978927612, 0.06904260814189911, 0.04376973956823349, 0.08783892542123795, 0.06313416361808777, 0.11612379550933838, -0.06820522993803024, -0.008894291706383228, 0.10585912317037582, -0.06494513899087906, 0.10122253000736237, 0.045241884887218475, 0.059494517743587494, 0.05809711292386055, -0.04738757386803627, -0.08407185226678848, 0.026620522141456604, 0.035066694021224976, 0.08576792478561401, 0.03490711376070976, 0.06545131653547287, -0.017588039860129356, 0.0032375664450228214, -0.0788647010922432, -0.0708681046962738, 0.08535496145486832, 0.02873099595308304, -0.10070057958364487, 0.09067010879516602, -0.1231062114238739, -0.03825172036886215, -0.057995133101940155, 0.1138862892985344, 0.05374491959810257, 0.07424364984035492, -0.01853891648352146, -0.052932631224393845, -0.012391381897032261, -0.058807387948036194, -0.052833616733551025, -0.11920969188213348, -0.059010397642850876, 0.04325609654188156, -0.05365845188498497, -0.016983263194561005, 0.06613235920667648, 0.12044443190097809, 0.04194507747888565, -0.10596540570259094, -0.11106119304895401, -0.014884795062243938, 0.03280726075172424, -0.034408725798130035, 0.014115794561803341, -0.10249076038599014, -0.006962135899811983, 0.028055202215909958, 0.013053490780293941, -0.11432687938213348, 0.09984739124774933, -0.08747722953557968, 0.033939462155103683, -0.1095290556550026, -0.03916025906801224, -0.01821121945977211, -0.016075631603598595, 0.06935007870197296, 0.040460314601659775, -0.04607175290584564, -0.0068770949728786945, -0.02644239366054535, -0.05844136327505112, 0.11781207472085953, 0.07848604768514633, 0.10673889517784119, -0.03537425026297569, 0.022660961374640465, 0.014263255521655083, -0.06920504570007324, 0.0674782544374466, 0.11813544481992722, -0.01856442540884018, 0.019055042415857315, 0.10810622572898865, -0.05081811547279358, 0.10332441329956055, 0.012395795434713364, 0.0036649948451668024, -0.12428093701601028, 0.03598088026046753, -0.03820449858903885, -0.050157204270362854, -0.11402095854282379, 0.10843929648399353, -0.005544537678360939, 0.023077579215168953, -0.03633582219481468, -0.043052129447460175, 0.019934555515646935, 0.030415840446949005, -0.09757263958454132], [-0.10258392989635468, -0.05638577416539192, 0.03347993269562721, -0.042720161378383636, -0.06107347831130028, 0.02734008990228176, 0.026702580973505974, -0.11709197610616684, 0.039491914212703705, 0.02588743343949318, 0.12289044260978699, 0.048606988042593, 0.09398534148931503, -0.03433193638920784, 0.02974386140704155, 0.011391805484890938, -0.07838370651006699, 0.10069070756435394, 0.011004883795976639, -0.04246486350893974, -0.042155344039201736, -0.027070967480540276, 0.08592400699853897, 0.049171436578035355, 0.05112992972135544, -0.09894192963838577, 0.06589491665363312, 0.1233723983168602, -0.11136528849601746, 0.06700153648853302, -0.10181247442960739, -0.001245281659066677, 0.1222914382815361, -0.0010537533089518547, 0.08870696276426315, 0.02809945121407509, -0.11427813023328781, -0.022546924650669098, -0.1115817129611969, 0.011319800280034542, -0.026811951771378517, -0.07917793840169907, -0.002133255824446678, 0.06874071806669235, 0.008353273384273052, 0.008419078774750233, 0.08576399832963943, -0.08003243058919907, -0.09628120064735413, 0.11785029619932175, 0.10219747573137283, 0.04213299974799156, -0.02988889440894127, -0.050101105123758316, 0.05084124580025673, -0.10594359785318375, -0.10480890423059464, 0.06922000646591187, 0.04791721701622009, -0.06645920127630234, -0.009065540507435799, -0.042128972709178925, -0.0904771015048027, 0.08467396348714828, -0.04385452717542648, -0.0067536975257098675, 0.0390261635184288, -0.11940636485815048, 0.07552412152290344, 0.04711737483739853, 0.04922275245189667, -0.021083954721689224, -0.056907083839178085, -0.07424674183130264, 0.10686414688825607, 0.004628552123904228, 0.08689610660076141, -0.06826181709766388, -0.09396054595708847, -0.09941519796848297, 0.09402090311050415, -0.11792900413274765, 0.11073880642652512, 0.07526688277721405, -0.020482612773776054, -0.021584145724773407, -0.11528107523918152, -0.10962993651628494, -0.006538862828165293, 0.0728204995393753, -0.06416495144367218, -0.02438615821301937, -0.07884734123945236, -0.11683647334575653, -0.055256232619285583, 0.047415412962436676, 0.01126269344240427, 0.09554325044155121, -0.06455465406179428, 0.07808321714401245, 0.07993055135011673, -0.1179519072175026, 0.02578165754675865, -0.06425757706165314], [-0.10759864747524261, 0.03199155256152153, 0.01555806677788496, -0.035428017377853394, -0.07070739567279816, -0.08610332012176514, 0.06497577577829361, -0.038443680852651596, 0.10347932577133179, -0.01607474684715271, 0.013314379379153252, 0.1110210046172142, -0.08932208269834518, 0.10307963937520981, 0.001200977829284966, 0.06830112636089325, -0.0329558290541172, 0.09103718400001526, 0.09774954617023468, 0.08079127222299576, -0.006302321329712868, 0.09929507970809937, -0.07559540867805481, 0.11695452779531479, 0.08826752752065659, 0.08228703588247299, -0.0845077857375145, 0.054035283625125885, 0.06823290884494781, 0.08238466084003448, -0.011366458609700203, 0.03338466212153435, -0.09684916585683823, -0.0223543718457222, -0.007806573063135147, -0.07303790003061295, -0.011759007349610329, 0.12337344139814377, 0.019733306020498276, -0.0368250273168087, -0.012935417704284191, 0.06387130171060562, 0.056063178926706314, 0.0014936282532289624, 0.07084712386131287, 0.009756498970091343, -0.07614291459321976, -0.06866512447595596, -0.10433249920606613, -0.026273254305124283, -0.034504760056734085, -0.013128816150128841, -0.08159688860177994, 0.101915143430233, 0.05654821917414665, -0.08014185726642609, 0.05409074202179909, -0.08277561515569687, -0.03830462321639061, 0.07299087941646576, 0.046737756580114365, -0.06712476164102554, 0.04970217123627663, 0.03743479773402214, -0.055799450725317, -0.08269394189119339, 0.08778122812509537, 0.03429437801241875, -0.0745433121919632, -0.0817318707704544, 0.03447305038571358, 0.10772156715393066, 0.10685326159000397, 0.0012343109119683504, 0.059757791459560394, 9.595508163329214e-05, -0.030220381915569305, 0.0011513878125697374, -0.004493291489779949, 0.06153156980872154, 0.11258642375469208, -0.09710629284381866, -0.061268337070941925, 0.07373975962400436, 0.05514504760503769, -0.06542573869228363, 0.12267765402793884, 0.036140426993370056, 0.00395820289850235, -0.0028928350657224655, 0.05702400207519531, 0.11155568808317184, 0.09902250021696091, -0.07467897236347198, -0.023839836940169334, 0.05839388817548752, -0.035789620131254196, -0.002165304496884346, 0.058584973216056824, -0.10849474370479584, 0.06865547597408295, -0.004668056964874268, -0.10001242905855179, -0.11382933706045151], [0.11852150410413742, 0.10927208513021469, -0.1105310246348381, -0.026309965178370476, -0.06326542049646378, -0.10308057814836502, 0.03340279683470726, 0.006764852441847324, -0.014278409071266651, 0.007589148823171854, -0.0378996804356575, 0.056692998856306076, -0.09610477834939957, 0.03376327082514763, 0.06043919548392296, -0.06485641747713089, -0.032496217638254166, 0.0065123047679662704, 0.039253659546375275, 0.00705230375751853, 0.04075679928064346, -0.04711802676320076, -0.03207320347428322, -0.1056903824210167, -0.05034826323390007, -0.12071555852890015, -0.01587652787566185, 0.0828254371881485, 0.06454995274543762, 0.03948609530925751, 0.09745924174785614, 0.04527619108557701, -0.04719670116901398, -0.07206889241933823, 0.007515068165957928, -0.08710422366857529, 0.10167038440704346, -0.10115669667720795, -0.0855400562286377, 0.06514595448970795, 0.006280469708144665, -0.027057146653532982, 0.06171879917383194, 0.032716795802116394, -0.02844700589776039, -0.05869223549962044, -0.1047244593501091, 0.10517264157533646, 0.11336159706115723, -0.0014031055616214871, -0.025446120649576187, 0.06455258280038834, 0.038484297692775726, 0.10069321095943451, 0.0780588760972023, 0.02132352627813816, 0.07563993334770203, 0.005951477214694023, 0.12276817858219147, 0.05909309536218643, 0.03494824841618538, 0.03655548766255379, -0.09186843037605286, -0.0310757327824831, -0.08142412453889847, 0.07934509962797165, -0.08956987410783768, 0.03616432473063469, 0.10583795607089996, -0.08348347246646881, -0.0267648845911026, 0.11381072551012039, 0.046148914843797684, 0.11545348912477493, -0.05537233501672745, 0.060581669211387634, -0.049664873629808426, -0.0338270328938961, 0.02910279855132103, 0.008524931035935879, -0.029276030138134956, -0.028146738186478615, 0.10274247080087662, 0.09954050928354263, -0.023739855736494064, -0.0394667312502861, -0.0649629756808281, 0.020204145461320877, -0.045201197266578674, 0.10264725983142853, -0.08745832741260529, 0.006828222889453173, 0.026477554813027382, -0.0008434852352365851, 0.014609845355153084, 0.004707707092165947, -0.0659007653594017, -0.11764855682849884, -0.019217155873775482, 0.02206537313759327, 0.04455931857228279, -0.11893405020236969, -0.03865550830960274, 0.0477311946451664], [0.008462020196020603, -0.11727676540613174, 0.0007449989789165556, 0.07792553305625916, -0.03909989446401596, 0.11285596340894699, 0.03491656854748726, 0.017565052956342697, -0.07509514689445496, 0.11074579507112503, 0.04502957686781883, -0.01651889458298683, -0.021423541009426117, -0.10828753560781479, 0.016143064945936203, -0.056278035044670105, -0.05524221435189247, 0.02609005756676197, -0.015681905671954155, 0.03041587397456169, -0.017491033300757408, 0.010569478385150433, -0.07347771525382996, 0.014536771923303604, -0.058257829397916794, 0.11783754080533981, -0.03392650932073593, -0.09081658720970154, -0.10939610004425049, -0.02203059382736683, -0.09752479940652847, 0.07286950945854187, -0.11786797642707825, -0.08507219702005386, 0.10606000572443008, -0.00537818344309926, -0.0204415712505579, 0.08009780198335648, -0.12096468359231949, 0.10560723394155502, -0.05802939832210541, -0.0176959577947855, -0.09138722717761993, 0.028995443135499954, -0.0715768113732338, -0.0446060486137867, 0.011283262632787228, -0.10702463984489441, -0.06254211813211441, -0.07301033288240433, -0.05093122646212578, -0.03744504228234291, -0.06310726702213287, 0.023552920669317245, -0.03350386396050453, -0.08254057914018631, 0.019118014723062515, -0.09231916069984436, 0.07346933335065842, 0.1090424507856369, -0.014044297859072685, 0.06519781798124313, 0.02399858459830284, -0.11194419115781784, -0.0026823871303349733, 0.057882215827703476, 0.055435433983802795, -0.102467380464077, -0.11024614423513412, -0.05851488560438156, -0.05259168893098831, -0.03366779908537865, 0.04062828794121742, 0.0894879475235939, 0.01921740360558033, 0.07714835554361343, 0.03176242485642433, 0.05609402805566788, 0.045030370354652405, -0.11844330281019211, 0.025109635666012764, -0.06010366603732109, 0.022639235481619835, -0.04265480861067772, -0.057052601128816605, 0.12172006070613861, 0.016205305233597755, -0.04981135204434395, -0.000796972424723208, -0.04288692772388458, 0.03171367570757866, -0.05538294464349747, 0.002456256188452244, -0.07089699059724808, 0.11909276992082596, -0.10835534334182739, -0.07084551453590393, 0.035101938992738724, 0.02112034149467945, 0.07605522871017456, 0.039288800209760666, 0.03573109582066536, -0.023162424564361572, 0.0515790730714798], [0.04411341995000839, -0.12087400257587433, -0.10398762673139572, 0.026071229949593544, 0.12155792117118835, 0.07752221822738647, -0.012447928078472614, -0.0217641219496727, 0.009945656172931194, 0.08486559242010117, 0.09197680652141571, 0.09348944574594498, -0.01234006229788065, -0.06947878003120422, 0.05325755476951599, 0.08731620013713837, 0.06840865314006805, -0.11480677127838135, -0.0007307346677407622, -0.07608585059642792, -0.03586229681968689, -0.04292840510606766, 0.10700792074203491, -0.08146503567695618, -0.0747891515493393, -0.000287096161628142, 0.0313279889523983, -0.032788947224617004, -0.11890412122011185, 0.04472854733467102, -0.10987184196710587, 0.025547537952661514, 0.09719183295965195, 0.07130450755357742, -0.06247396022081375, 0.08502689749002457, 0.06188584864139557, -0.1159885823726654, 0.11618466675281525, 0.032901499420404434, -0.008691835217177868, 0.09504429996013641, -0.05177214369177818, -0.04625390097498894, -0.09722639620304108, 0.09923674911260605, -0.08721978217363358, 0.005683057941496372, -0.00550316646695137, 0.006349537055939436, 0.08846817910671234, -0.007935654371976852, -0.0480564646422863, -0.03570576757192612, -0.11943801492452621, 0.11299163848161697, -0.0394471138715744, -0.05861397087574005, 0.07404235005378723, -0.005978856235742569, 0.09595075249671936, 0.0035707433708012104, -0.09976404160261154, -0.10110551863908768, 0.0657413899898529, 0.006027247291058302, -0.08165709674358368, 0.10086433589458466, 0.03703058511018753, -0.10922390222549438, -0.06421887874603271, 0.07345563173294067, -0.0043095615692436695, -0.030290750786662102, 0.07559392601251602, 0.12297745794057846, 0.040405310690402985, 0.006251887883991003, -0.02257704734802246, -0.03875814005732536, -0.04694496467709541, 0.11483185738325119, 0.10410608351230621, 0.033593401312828064, -0.09146013855934143, -0.06050984561443329, -0.11397241055965424, 0.10047701746225357, 0.06466516107320786, -0.09232550114393234, 0.027552777901291847, -0.04141493886709213, 0.03262685611844063, 0.07659400254487991, 0.03701309487223625, 0.09791924804449081, -0.06720532476902008, -0.08697382360696793, -0.10491308569908142, -0.08774327486753464, 0.021407295018434525, 0.01670251600444317, -0.018586067482829094, -0.06532024592161179], [0.06068829819560051, 0.10164576023817062, -0.053380563855171204, 0.0549582913517952, -0.06688793003559113, -0.028021464124321938, -0.0015349865425378084, -0.09559038281440735, -0.059218380600214005, -0.042821139097213745, 0.035682059824466705, -0.027593594044446945, -0.08543277531862259, -0.07373783737421036, 0.11121898889541626, 0.025789722800254822, 0.03907986730337143, 0.10969122499227524, -0.002498213667422533, 0.0807916522026062, -0.032827042043209076, -0.11570233106613159, -0.04569822549819946, -0.01592673920094967, 0.10408806055784225, -0.0918373167514801, 0.07088866084814072, -0.07419806718826294, -0.004585576243698597, -0.1232447475194931, -0.10939548909664154, 0.09382669627666473, -0.009545236825942993, -0.048146843910217285, 0.026127079501748085, 0.017871104180812836, 0.09296242147684097, -0.08010348677635193, -0.03216995671391487, -0.034441083669662476, 0.0966503769159317, -0.10337752848863602, 0.023631764575839043, -0.012132307514548302, -0.08735422790050507, 0.03423336520791054, -0.08174967765808105, -0.029777655377984047, -0.00848938524723053, -0.09766246378421783, 0.012297488749027252, 0.011893589980900288, 0.09459344297647476, -0.08329535275697708, 0.029505856335163116, 0.028569595888257027, 0.05053894594311714, 0.07160510122776031, 0.01255723461508751, -0.03103812411427498, 0.05923958867788315, 0.0923454761505127, 0.1063239648938179, 0.008117985911667347, -0.0013892143033444881, 0.12369795143604279, -0.06655770540237427, 0.1086343303322792, -0.04307818412780762, 0.12036260217428207, 0.0033138066064566374, -0.08177537471055984, -0.03614572063088417, -0.0447639524936676, 0.09675833582878113, -0.09727540612220764, 0.05782928317785263, 0.11118167638778687, -0.06063142046332359, -0.0005708169192075729, 0.010445590130984783, -0.09806886315345764, -0.03768116608262062, -0.11024758219718933, 0.10305054485797882, -0.09558900445699692, -0.0930122509598732, 0.0042390297167003155, -0.02194490283727646, 0.06557995080947876, 0.0029087217990309, -0.09456977993249893, -0.06982140988111496, -0.028857354074716568, 0.0024802125990390778, -0.07221958786249161, -0.0439082570374012, -0.008188416250050068, -0.08603077381849289, 0.006157563999295235, 0.09490995854139328, 0.029212573543190956, -0.03796697407960892, 0.1051158681511879], [-0.041113272309303284, -0.007429002318531275, -0.06738085299730301, 0.09019903093576431, -0.08442101627588272, 0.07486996054649353, -0.09913720935583115, -0.07559287548065186, -0.10082122683525085, 0.04148983955383301, 0.058316104114055634, 0.11007900536060333, -0.0005403496325016022, -0.07402103394269943, -0.0929282158613205, 0.1129211038351059, -0.08359075337648392, 0.06008715182542801, -0.04343513026833534, 0.01258079893887043, -0.04563763737678528, -0.10985367745161057, 0.10455941408872604, -0.042870596051216125, 0.12387308478355408, 0.020398324355483055, -0.015154938213527203, 0.022233067080378532, -0.10657916218042374, -0.056074731051921844, -0.041562214493751526, 0.02945582941174507, -0.11495469510555267, -0.045674119144678116, -0.0651615634560585, 0.02710140310227871, 0.11243139207363129, 0.07901734113693237, 0.009045006707310677, -0.049679532647132874, -0.015860026702284813, -0.014667203649878502, 0.10309667140245438, 0.0001506741245975718, 0.0033930542413145304, -0.039523929357528687, 0.026026252657175064, 0.12346864491701126, -0.09850112348794937, -0.058308832347393036, -0.020704025402665138, 0.011373104527592659, 0.0010994437616318464, -0.0524551160633564, -0.05320165678858757, 0.011048064567148685, -0.059456516057252884, 0.08789069950580597, 0.04298930987715721, -0.10413014888763428, -0.07685235887765884, -0.11600371450185776, 0.08477597683668137, 0.04444722458720207, 0.09580830484628677, 0.0335620753467083, -0.05164651200175285, -0.05933568999171257, 0.018845001235604286, 0.016936495900154114, 0.04815158247947693, -0.06009819731116295, 0.0021086616907268763, -0.030195878818631172, -0.09661825746297836, -0.0032591023482382298, -0.009834912605583668, -0.07781483232975006, -0.111679807305336, -0.02335629053413868, -0.05573366582393646, -0.034116778522729874, -0.01202057022601366, -0.0500703826546669, 0.06906375288963318, -0.060054849833250046, -0.010137038305401802, -0.005733411759138107, 0.08799208700656891, 0.04281015694141388, 0.015831146389245987, -0.07084204256534576, 0.0724857896566391, -0.015060432255268097, 0.044470205903053284, 0.07649447023868561, 0.005568817723542452, -0.018384909257292747, 0.018373411148786545, -0.0057802884839475155, 0.014866222627460957, 0.03581566736102104, -0.08308809995651245, -0.010591473430395126], [-0.10703808069229126, -0.09497387707233429, 0.10409939289093018, 0.04065442830324173, -0.023122385144233704, -0.10611522197723389, -0.09899239987134933, -0.033506788313388824, -0.1033838614821434, -0.026235660538077354, 0.057309526950120926, -0.07212989032268524, 0.07840961962938309, 0.07164846360683441, 0.06196540221571922, -0.014942946843802929, 0.11340532451868057, 0.052922748029232025, 0.00972120650112629, -0.017748814076185226, 0.08280254155397415, 0.07282194495201111, 0.041617874056100845, 0.08825930207967758, -0.10956340283155441, 0.09498970210552216, -0.07522343099117279, 0.12066580355167389, 0.061393216252326965, 0.0021903759334236383, 0.018698569387197495, 0.09779675304889679, 0.03878866881132126, -0.09463948011398315, 0.11620022356510162, 0.040011048316955566, 0.1185690239071846, -0.08559200912714005, 0.028848810121417046, -0.09653903543949127, 0.10398406535387039, 0.10898423939943314, -0.062209244817495346, 0.09639007598161697, -0.04541195556521416, 0.05987761542201042, -0.035232286900281906, -0.07826213538646698, -0.04733165353536606, -0.07661020755767822, 0.081690713763237, 0.12244051694869995, -0.11692989617586136, 0.10662142187356949, 0.01810857467353344, 0.09043596684932709, -0.031996265053749084, 0.00806421972811222, -0.08454515784978867, -0.1046442911028862, 0.06034727394580841, 0.11883538216352463, -0.11794743686914444, 0.038718920201063156, 0.12300946563482285, -0.0135193457826972, 0.02725077234208584, -0.00021724251564592123, 0.014345547184348106, 0.10940713435411453, 0.046217262744903564, 0.058768466114997864, -0.05349240079522133, -0.0007287956541404128, 0.07724668085575104, -0.09998413175344467, 0.10888481885194778, 0.06635875999927521, -0.05183529481291771, 0.09711702167987823, 0.06649059057235718, -0.08799944818019867, 0.008153132162988186, -0.03621293604373932, 0.11609409749507904, -0.018092306330800056, 0.10706289857625961, -0.021550722420215607, -0.07156848162412643, -0.1215171068906784, -0.007429789751768112, 0.10936352610588074, -0.003330096835270524, -0.08477902412414551, 0.0667421743273735, 0.06101621314883232, 0.05362917482852936, -0.08451575040817261, -0.08955936133861542, -0.1240125522017479, 0.08998215943574905, -0.08043600618839264, -0.07695740461349487, 0.05004744976758957], [-0.10175903886556625, -0.06961707770824432, 0.0445980504155159, -0.04795501381158829, 0.022345421835780144, -0.10310051590204239, -0.020300202071666718, -0.12321977317333221, -0.06290370970964432, 0.046019673347473145, 0.010192849673330784, 0.11967772990465164, -0.009539475664496422, 0.1103588342666626, -0.10417051613330841, 0.0724552795290947, 0.012788196094334126, 0.113832987844944, -0.026208743453025818, -0.04115663841366768, 0.06539593636989594, 0.11431512981653214, -0.07377006113529205, 0.014630976133048534, -0.11669676750898361, -0.05114436522126198, 0.11349757760763168, -0.11422450840473175, 0.006842188537120819, 0.04964892938733101, -0.06451521068811417, -0.03570343181490898, 0.07208037376403809, -0.09185081720352173, -0.0880235806107521, -0.10214441269636154, -0.025647765025496483, -0.0014755624579265714, -0.0661788061261177, 0.04516633227467537, 0.1065787822008133, 0.08603448420763016, 0.06416092813014984, 0.043650925159454346, -0.020486919209361076, -0.02428315579891205, 0.04977275803685188, 0.021492430940270424, -0.08061306178569794, -0.11934083700180054, -0.060038309544324875, -0.008051101118326187, -0.040610507130622864, 0.08369588106870651, -0.09267748892307281, 0.08615384995937347, 0.030171584337949753, 0.02391216903924942, -0.04786638170480728, -0.03223227709531784, 0.04946475476026535, 0.08130036294460297, 0.04473414272069931, -0.0020508193410933018, -0.05678073689341545, 0.0010984968394041061, -0.09826435148715973, -0.011971063911914825, 0.06764372438192368, -0.0863616093993187, -0.11243710666894913, 0.10045931488275528, 0.019716724753379822, -0.07134141772985458, -0.0897258073091507, -0.003251065267249942, -0.0006037751445546746, -0.10627751797437668, 0.04758200794458389, 0.0864533856511116, 0.012482681311666965, -0.12128517776727676, 0.0983165055513382, -0.05682685971260071, -0.04116033762693405, 0.09882304817438126, -0.0022000332828611135, 0.01932884380221367, -0.02963142842054367, 0.02246863953769207, -0.044364940375089645, -0.08126860111951828, 0.021450964733958244, 0.0590813010931015, -0.051928773522377014, 0.010445049032568932, 0.06298529356718063, 0.092429980635643, -0.0675189197063446, -0.0172880869358778, -0.11017575860023499, -0.004067858215421438, -0.0041173361241817474, -0.05338330566883087], [0.02417747862637043, 0.10986782610416412, 0.07669472694396973, -0.08588254451751709, -0.06758809834718704, -0.08269922435283661, -0.068447045981884, 0.051673781126737595, -0.08572553843259811, -0.018574709072709084, -0.01919046975672245, 0.03602299094200134, 0.03660512715578079, -0.0977855771780014, 0.016994763165712357, -0.034359682351350784, -0.10498020797967911, -0.013256064616143703, -0.08215765655040741, -0.09354040026664734, 0.00475935498252511, 0.017771635204553604, -0.002966185100376606, 0.04084219038486481, 0.12186654657125473, -0.09510712325572968, 0.00033315864857286215, 0.029651539400219917, -0.026294782757759094, 0.06477230042219162, 0.05563994124531746, 0.1205132007598877, -0.11731761693954468, -0.04809214547276497, 0.12163183838129044, 0.042726799845695496, -0.02888990007340908, 0.11494062095880508, -0.044785305857658386, -0.1160198375582695, 0.06824366748332977, -0.031359825283288956, 0.00498269684612751, -0.04388799890875816, 0.11767598241567612, -0.08721131831407547, 0.04566032439470291, 0.05159779638051987, -0.006018307525664568, -0.057105809450149536, -0.04043903946876526, 0.1056002825498581, -0.07248740643262863, -0.08421614021062851, 0.06373727321624756, 0.030878491699695587, 0.12027275562286377, 0.020754797384142876, -0.10838797688484192, -0.10793596506118774, 0.0006968326051719487, 0.12347713857889175, 0.02338275872170925, 0.019479939714074135, 0.11891297250986099, 0.05111709237098694, -0.028454884886741638, 0.12304812669754028, -0.06491043418645859, -0.05592283234000206, 0.0968625620007515, -0.039125632494688034, 0.050688814371824265, 0.004482243210077286, 0.09576068818569183, -0.1188732460141182, 0.004727534484118223, -0.08977246284484863, 0.09615575522184372, 0.07486502826213837, 0.0894245132803917, -0.04228668287396431, -0.06849558651447296, -0.05624781921505928, 0.048111047595739365, 0.06823889166116714, 0.11832167208194733, 0.08226155489683151, -0.05943448469042778, 0.08110261708498001, -0.034330371767282486, 0.014339123852550983, 0.04239282011985779, 0.006473683752119541, -0.06682848930358887, 0.000350926595274359, 0.0048834178596735, -0.10069391131401062, 0.11744173616170883, -0.050353340804576874, -0.00949071440845728, 0.10476118326187134, 0.11072735488414764, 0.0268566831946373], [-0.09077341109514236, 0.10173118114471436, -0.12270263582468033, -0.051041457802057266, 0.03719598799943924, 0.013020016252994537, -0.08915343880653381, -0.051317550241947174, 0.08224130421876907, -0.006192517001181841, 0.04812631011009216, 0.05472823232412338, -0.06698805838823318, 0.10323668271303177, -0.04451775550842285, -0.06154667213559151, 0.02502629905939102, -0.08160466700792313, 0.014175046235322952, 0.019505184143781662, -0.01741383969783783, 0.05425975099205971, -0.026493316516280174, -0.04279607534408569, -0.018202099949121475, 0.015669332817196846, 0.006280753295868635, 0.05551135167479515, -0.0001616019435459748, 0.07019980251789093, -0.07371128350496292, -0.028966780751943588, 0.07998865842819214, -0.02075844816863537, 0.11901899427175522, -0.0059445626102387905, 0.0783630907535553, -0.028422527015209198, -0.1062631830573082, -0.010450965724885464, -0.034295953810214996, 0.020600635558366776, 0.03725292906165123, -0.10953643172979355, -0.0021124936174601316, 0.06756576150655746, -0.02858373522758484, -0.004724403377622366, 0.03526024520397186, -0.10178429633378983, -0.05727746710181236, -0.07611453533172607, -0.0894506424665451, -0.02547139674425125, -0.08353017270565033, -0.11738555133342743, 0.0718298852443695, 0.04142787307500839, -0.09274902194738388, -0.0067156641744077206, 0.08187878876924515, -0.013937502168118954, -0.08106709271669388, 0.11275308579206467, -0.07127424329519272, 0.050877273082733154, 0.030290670692920685, -0.115377277135849, 0.017280226573348045, -0.10999508947134018, 0.119731105864048, -0.047633517533540726, -0.04019052907824516, -0.05872257798910141, 0.12362182140350342, -0.03799239173531532, 0.005792415235191584, 0.11504737287759781, 0.04660904407501221, 0.008915487676858902, -0.09540116041898727, 0.0067160469479858875, 0.05650428682565689, 0.04696160927414894, -0.09479939937591553, 0.12173149734735489, 0.09406742453575134, 0.02023131027817726, 0.07106182724237442, 0.05586673319339752, 0.028879286721348763, -0.08499248325824738, -0.10462135821580887, 0.04626723751425743, -0.0005944970180280507, 0.08860868960618973, -0.053408872336149216, -0.06047127768397331, -0.03801748901605606, 0.08328422158956528, -0.046040065586566925, 0.11831102520227432, -0.04475715383887291, -0.10749904811382294], [0.11049739271402359, -0.07185683399438858, -0.020944787189364433, 0.026853222399950027, 0.11858630180358887, 0.06442034244537354, -0.0016438615275546908, 0.11768930405378342, 0.0031012080144137144, -0.002630197210237384, -0.09180507063865662, -0.03142467513680458, 0.02734186500310898, 0.017483767122030258, 0.12064649164676666, -0.11178133636713028, -0.07650738954544067, 0.016663603484630585, -0.04391225054860115, 0.08265793323516846, -0.07605285942554474, 0.031689923256635666, 0.09854812175035477, 0.09730471670627594, 0.0874757394194603, -0.05854810029268265, -0.027351539582014084, -0.024059941992163658, -0.011956448666751385, -0.08410122245550156, -0.04488293081521988, 0.020832465961575508, 0.0651935338973999, 0.0014836651971563697, 0.09197383373975754, 0.10966543853282928, 0.1038336306810379, 0.08506584167480469, 0.06651125848293304, 0.06961913406848907, -0.11195563524961472, -0.12149504572153091, -0.0548824667930603, -0.04412015900015831, 0.11946851760149002, 0.12265683710575104, 0.013696619309484959, -0.11431899666786194, -0.06292703002691269, 0.02301662787795067, -0.013728339225053787, -0.022170567885041237, -0.0878496840596199, 0.049647264182567596, -0.12299979478120804, -0.06390364468097687, 0.09515070915222168, 0.032080456614494324, 0.00745878741145134, 0.05129227042198181, -0.061716269701719284, 0.008352728560566902, 0.08497779071331024, -0.09680871665477753, 0.12263266742229462, 0.05484040454030037, 0.02420954592525959, -0.04996237903833389, 0.006038135848939419, 0.06868492066860199, 0.07055331021547318, 0.020565196871757507, -0.10940936952829361, 0.053538497537374496, 0.01902536116540432, -0.02364763803780079, 0.03208524361252785, 0.03321204334497452, 0.026525232940912247, 0.05233408138155937, 0.03746025636792183, 0.012579663656651974, -0.0997605249285698, 0.021248111501336098, 0.06065778061747551, -0.03915553539991379, -0.09404945373535156, 0.008241524919867516, -0.04275082051753998, -0.03676499426364899, -0.10967005044221878, 0.031087661162018776, 0.1050538420677185, -0.03418515622615814, 0.07890050113201141, 0.004742052406072617, -0.0704060047864914, -0.08290033787488937, -0.027564071118831635, 0.015138400718569756, -0.04385813698172569, -0.06314634531736374, -0.037367552518844604, 0.11952583491802216], [-0.03959663584828377, 0.104343481361866, -0.029884517192840576, -0.08371280878782272, 0.10973961651325226, 0.09001275151968002, -0.025330906733870506, 0.040560368448495865, 0.007475942838937044, 0.03193523734807968, -0.04170512035489082, 0.01847011223435402, -0.040387172251939774, -0.09887731820344925, 0.10226285457611084, -0.059266213327646255, -0.06095743551850319, 0.11195296794176102, 0.12075629830360413, 0.08209389448165894, 0.07894337922334671, 0.044378429651260376, -0.08071186393499374, -0.07065780460834503, -0.11525454372167587, -0.01750992052257061, -0.07706283032894135, -0.022197570651769638, -0.02288271114230156, 0.06042603775858879, 0.009922618977725506, -0.09671978652477264, 0.014594626612961292, 0.11204751580953598, -0.06066650152206421, -0.043268833309412, 0.11664997786283493, 0.006151914596557617, -0.1195974349975586, 0.11783768236637115, 0.10245455801486969, 0.10900799185037613, 0.008422106504440308, 0.05954466015100479, -0.04145500436425209, -0.025879494845867157, -0.0406496524810791, -0.03957793489098549, -0.03924752399325371, 0.0945810079574585, 0.033474184572696686, -0.031164221465587616, 0.05002067610621452, 0.02599775418639183, -0.11635904014110565, 0.07629045099020004, -0.030767925083637238, -0.011160677298903465, 0.08980889618396759, 0.07889896631240845, 0.1173764169216156, -0.06227364018559456, 0.01311036292463541, 0.03070809133350849, 0.08162163943052292, -0.030719896778464317, 0.0918421745300293, 0.11451522260904312, -0.11752329021692276, -0.09578321129083633, 0.029408100992441177, -0.07154703885316849, 0.060759615153074265, 0.11151286214590073, 0.05781187117099762, 0.062379706650972366, -0.024590853601694107, -0.019761646166443825, -0.06913866102695465, -0.01774049736559391, -0.034769002348184586, -0.09330753237009048, -0.006636800244450569, -0.036549411714076996, 0.056744106113910675, 0.08525990694761276, 0.059306349605321884, -0.06007634475827217, -0.04700883477926254, 0.024207141250371933, 0.115949347615242, -0.05787771940231323, 0.08189978450536728, -0.007871631532907486, 0.03297211229801178, -0.00376476114615798, -0.045361634343862534, -0.044332921504974365, -0.0002217878500232473, 0.03842788562178612, -0.06428267061710358, -0.09966445714235306, -0.11690934002399445, -0.09948382526636124], [-0.05902928113937378, 0.06865487992763519, 0.006912660785019398, -0.05080177262425423, -0.005736814346164465, -0.026380538940429688, 0.06361564993858337, 0.0874718576669693, 0.03317869082093239, -0.006083126645535231, -0.09276671707630157, -0.12368107587099075, 0.01918472908437252, 0.05328483507037163, -0.086601622402668, 0.10982315987348557, -0.06410563737154007, -0.09553970396518707, 0.009504355490207672, 0.09416661411523819, 0.03663110360503197, -0.12241464108228683, 0.008772699162364006, -0.1242491751909256, -0.0670054629445076, 0.07740418612957001, -0.11303025484085083, -0.015564601868391037, 0.030011430382728577, 0.02219380810856819, -0.044332146644592285, -0.028682246804237366, 0.11861222237348557, 0.11101023852825165, -0.04711861535906792, -0.10786648839712143, -0.10483795404434204, -0.01275358535349369, 0.015150744467973709, -0.06413377821445465, -0.11350605636835098, -0.03643937036395073, 0.010107140988111496, 0.10712260752916336, -0.10209392756223679, -0.058257151395082474, -0.10652216523885727, 0.07050419598817825, -0.0892094075679779, 0.08544921875, -0.0672137439250946, -0.04794056713581085, 0.027748068794608116, 0.04445984587073326, -0.08694323152303696, -0.10576236248016357, -0.09463037550449371, 0.02226516604423523, -0.08747843652963638, -0.005252987612038851, -0.08570331335067749, -0.10032288730144501, -0.09744144231081009, 0.025076337158679962, 0.05243689939379692, -0.047220341861248016, -0.00783135462552309, 0.016115305945277214, -0.08928919583559036, -0.12090377509593964, -0.07999641448259354, -0.02747841365635395, -0.05710588023066521, 0.11144063621759415, 0.10280253738164902, 0.011658954434096813, 0.10517200082540512, 0.012822389602661133, 0.10939141362905502, -0.05515933781862259, 0.057828642427921295, -0.02338912896811962, -0.06228157505393028, 0.019140440970659256, 0.02226538583636284, 0.08667577803134918, 0.10674776136875153, -0.10051070898771286, -0.040563084185123444, -0.08481709659099579, -0.02515137381851673, -0.08424126356840134, -0.0008607652853243053, 0.04949622228741646, 0.08830579370260239, -0.10299032926559448, 0.11426655203104019, -0.12054958194494247, -0.026321250945329666, 0.09556996822357178, 0.03372672572731972, -0.03941917419433594, 0.11189525574445724, -0.034350402653217316], [-0.017320580780506134, -0.02207774482667446, 0.11919649690389633, 0.08979728072881699, 0.07138607650995255, -0.050803158432245255, -0.01685207150876522, -0.017489612102508545, 0.029818041250109673, 0.03337938338518143, 0.10782225430011749, 0.01599266193807125, -0.08268438279628754, -0.003906636033207178, -0.06172311678528786, -0.057008400559425354, 0.08223234117031097, -0.033311035484075546, 0.11019787937402725, 0.0029559973627328873, -0.03345046564936638, 0.06505955755710602, -0.07611868530511856, 0.012856154702603817, 0.007785612251609564, -0.1072443351149559, -0.10583149641752243, -0.02869882807135582, 0.04405805096030235, -0.10160522907972336, -0.09545201063156128, -0.016360832378268242, 0.08315408229827881, -0.02327779307961464, -0.03534884378314018, 0.08465082943439484, -0.04603098705410957, 0.11617250740528107, -0.05006460100412369, -0.07281167060136795, -0.07561802864074707, 0.061446309089660645, -0.014447751455008984, -0.020049380138516426, 0.03523572161793709, 0.06698265671730042, 0.11671491712331772, -0.007193856406956911, -0.024517204612493515, -0.06023113802075386, -0.12193755805492401, 0.08974245190620422, 0.040394220501184464, -0.009237567894160748, 0.0296916663646698, 0.09870390594005585, -0.0731540322303772, 0.11356960982084274, 0.02118714153766632, 0.067766472697258, -0.08485537022352219, 0.08326468616724014, -0.004282791633158922, -0.11967915296554565, 0.10576343536376953, -0.09156462550163269, 0.03036162443459034, -0.09046570956707001, 0.05790482088923454, -0.12308942526578903, 0.08762815594673157, 0.012831221334636211, 0.048532065004110336, -0.0452980175614357, -0.04674939066171646, -0.07253534346818924, -0.060617078095674515, -0.0693058967590332, -0.012400669977068901, -0.052950743585824966, -0.07474774122238159, 0.013621807098388672, 0.07849453389644623, -0.05014728754758835, 0.08948788791894913, 0.05413069948554039, 0.0315277986228466, 0.12322383373975754, 0.018739914521574974, -0.11586508899927139, 0.025950178503990173, -0.09907329827547073, 0.027247009798884392, -0.077762171626091, -0.037325650453567505, 0.09675877541303635, -0.041812460869550705, -0.1074163094162941, -0.09569435566663742, -0.06625425815582275, 0.08942210674285889, 0.0015489193610846996, 0.0003864590253215283, -0.0565013512969017], [-0.11351393163204193, 0.033846884965896606, -0.016348738223314285, -0.09405608475208282, 0.08296594023704529, -0.01341185625642538, 0.08975552767515182, -0.09673181176185608, -0.049786277115345, 0.0626491978764534, -0.0004775133274961263, 0.05546019598841667, 0.10974214971065521, -0.06959764659404755, -0.028922850266098976, 0.12332885712385178, -0.06453490257263184, 0.11285576224327087, -0.11168885976076126, -0.04096967726945877, 0.024945897981524467, 0.03458493575453758, 0.042147934436798096, 0.08125845342874527, 0.015680814161896706, 0.05120205506682396, -0.09443049132823944, -0.04527905583381653, -0.11637604236602783, -0.045971810817718506, 0.007336418144404888, -0.037609945982694626, 0.09014701843261719, 0.06202688440680504, -0.11711032688617706, 0.11086779087781906, -0.11432746797800064, 0.016604889184236526, -0.045006077736616135, 0.0892162173986435, -0.01289401389658451, 0.10514193028211594, -0.01457938738167286, 0.0032177127432078123, 0.10791569203138351, 0.04755932092666626, -0.0056130411103367805, -0.09776383638381958, 0.08315317332744598, -0.01592286489903927, 0.09780390560626984, 0.05755750462412834, -0.052632302045822144, 0.10724511742591858, 0.07562649250030518, 0.061390120536088943, -0.056195348501205444, -0.06929602473974228, -0.05599750578403473, 0.1005454733967781, 0.046435028314590454, -0.043353959918022156, 0.12312690168619156, 0.0442008413374424, -0.04692802578210831, -0.07318506389856339, -0.009531140327453613, -0.11365704238414764, 0.0835394337773323, 0.061532918363809586, 0.020018724724650383, -0.053344376385211945, 0.07173095643520355, 0.12016497552394867, 0.03582834079861641, 0.04939762502908707, 0.07555948942899704, 0.09427396953105927, -0.03425842896103859, 0.09429143369197845, -0.0015052265953272581, 0.07654447108507156, -0.10410401225090027, 0.06119643524289131, -0.06724473834037781, -0.016082555055618286, 0.006717560812830925, 0.10638696700334549, 0.07190107554197311, -0.030576683580875397, 0.09580295532941818, 0.020544283092021942, -0.02582528442144394, -0.09653379768133163, 0.10591361671686172, -0.11948272585868835, 0.11779243499040604, 0.05737985670566559, 0.048119574785232544, 0.057165756821632385, 0.049954675137996674, -0.09528378397226334, 0.08319548517465591, 0.09888682514429092], [0.11237186938524246, 0.02388780377805233, 0.12297603487968445, 0.10655074566602707, 0.015478543005883694, 0.00976488459855318, 0.02400439791381359, 0.05887298285961151, 0.09209160506725311, 0.0518188439309597, 0.04271088168025017, -0.08974745124578476, -0.0618448331952095, -0.1129111722111702, 0.0494772233068943, 0.10302692651748657, -0.07461539655923843, -0.00674101710319519, -0.11951088160276413, -0.05714891850948334, 0.01098599936813116, 0.0743541568517685, -0.11223409324884415, 0.0992242619395256, 0.0885968878865242, 0.04599430412054062, -0.057478975504636765, -0.03990858793258667, 0.10197887569665909, 0.02058219350874424, 0.08624806255102158, 0.00012184827937744558, 0.038638968020677567, -0.07130386680364609, 0.0002792754676192999, 0.0010870152618736029, -0.036945562809705734, -0.07622969895601273, 0.10663437843322754, 0.04393055662512779, 0.08907744288444519, -0.007707326672971249, -0.1047007143497467, 0.10565889626741409, -0.04248279333114624, -0.03114551678299904, -0.0004050876887049526, -0.10505606234073639, -0.0282144658267498, 0.05570472404360771, 0.015898559242486954, -0.00825717393308878, -0.11509540677070618, 0.027266070246696472, -0.04888371378183365, 0.07052011787891388, -0.0007061290089040995, 0.010753089562058449, -0.12367073446512222, 0.10127412527799606, 0.09701365232467651, 0.12109234184026718, -0.0014861886156722903, -0.08365169912576675, 0.01203641202300787, 0.07838308066129684, -0.012937592342495918, -0.10964325815439224, 0.049202706664800644, -0.06202004849910736, 0.09766870737075806, 0.01679697073996067, -0.003972257487475872, 0.11122746765613556, 0.10008010268211365, 0.09324776381254196, -0.02138194628059864, 0.015282279811799526, -0.07251094281673431, -0.07466467469930649, -0.12268677353858948, 0.07384379208087921, 0.004111131187528372, -0.019696617498993874, 0.06447054445743561, 0.12245721369981766, -0.11124586313962936, -0.07478830218315125, 0.10948542505502701, 0.0763959065079689, 0.06702384352684021, -0.08162377029657364, -0.0016823511105030775, -0.06796902418136597, -0.012079555541276932, 0.03211195766925812, 0.03228723257780075, -0.10389597713947296, -0.12230176478624344, 0.03220712020993233, 0.09994947910308838, -0.08774598687887192, 0.09122403711080551, 0.11029638350009918], [0.012696145102381706, 0.113349050283432, -0.07143029570579529, -0.0935070589184761, 0.049601100385189056, -0.08837127685546875, 0.08220686763525009, 0.10428240150213242, 0.0036216466687619686, 0.09815623611211777, -0.06953664124011993, -0.02725510485470295, -0.07071241736412048, -0.10990717262029648, 0.030978497117757797, -0.09667593985795975, -0.054137732833623886, -0.004907393362373114, -0.10329003632068634, -0.061936549842357635, 0.0751776322722435, -0.08724793046712875, 0.05948486551642418, -0.07943258434534073, 0.1181519404053688, -0.047187596559524536, -0.09905273467302322, 0.07078278809785843, -0.11024446785449982, -0.0977286696434021, 0.022569822147488594, -0.09214282035827637, -0.10065416991710663, -0.11170709878206253, 0.0007567821303382516, 0.022659188136458397, 0.06062856689095497, 0.01734931953251362, -0.11991630494594574, 0.10574869066476822, -0.06550584733486176, 0.03504537418484688, 0.042907293885946274, -0.019552437588572502, -0.07162293046712875, 0.044034428894519806, 0.06642353534698486, 0.023145023733377457, 0.008786844089627266, 0.11832363158464432, -0.0031191750895231962, -0.07352406531572342, 0.062242329120635986, 0.06694422662258148, -0.09913404285907745, -0.006365781184285879, 0.024077078327536583, 0.03360802307724953, -0.039272308349609375, -0.09146280586719513, 0.09995012730360031, 0.024514658376574516, -0.029505519196391106, 0.11336444318294525, 0.012435848824679852, -0.012431408278644085, -0.07422604411840439, 0.005789528135210276, 0.05123952031135559, 0.08893047273159027, -0.029454955831170082, -0.03136448562145233, 0.05883451923727989, 0.11072151362895966, 0.06778252124786377, 0.013345947489142418, 0.052312009036540985, 0.07252959161996841, 0.09293226897716522, 0.02568347565829754, -0.12025335431098938, 0.011900987476110458, 0.0700591579079628, 0.11056874692440033, 0.05464669689536095, 0.10657969117164612, 0.06149869039654732, 0.10567303746938705, 0.08514797687530518, 0.02209334634244442, -0.053402941673994064, -0.040408145636320114, 0.1191641315817833, 0.013909214176237583, 0.07105483114719391, 0.03409389406442642, -0.12160707265138626, 0.08178319782018661, -0.001301637152209878, 0.1175156757235527, -0.11879706382751465, -0.10791286081075668, 0.0403895303606987, 0.10633111745119095], [-0.011045491322875023, -0.04517887532711029, -0.05967867374420166, 0.02742212824523449, 0.06991425156593323, 0.05359705165028572, 0.023306457325816154, -0.03840386122465134, -0.061120063066482544, -0.11265106499195099, -0.09925925731658936, 0.038976240903139114, -0.08338946104049683, -0.09272147715091705, -0.11887342482805252, 0.1218409389257431, 0.055007509887218475, 0.09612151235342026, -0.092463918030262, -0.025384264066815376, 0.10176552087068558, -0.07573539018630981, -0.036851752549409866, -0.06507864594459534, -0.04221733659505844, -0.021420059725642204, 0.041790470480918884, 0.07581649720668793, 0.001726798014715314, 0.05581656098365784, 0.07724815607070923, -0.07599852979183197, -0.012951796874403954, 0.046298764646053314, -0.013909869827330112, -0.06593719869852066, -0.10746528208255768, 0.0677114725112915, -0.07514315843582153, -0.07166766375303268, 0.11238586902618408, 0.07187466323375702, -0.1214459091424942, -0.03992721810936928, 0.02409280650317669, 0.018772535026073456, -0.059462450444698334, 0.04454254359006882, 0.04994087293744087, 0.07821672409772873, -0.06070883199572563, 0.053655918687582016, -0.07067316025495529, 0.12386903911828995, 0.03523530811071396, -0.0533115491271019, 0.05336349457502365, 0.018126655369997025, 0.009977888315916061, -0.05140610411763191, 0.11880838125944138, 0.0216694176197052, 0.0765702947974205, 0.09101486951112747, 0.04382224753499031, -0.029009535908699036, -0.09514191746711731, -0.12155646830797195, 0.08888551592826843, 0.016271717846393585, -0.05773017928004265, 0.09579197317361832, -0.10868760943412781, -0.022966286167502403, 0.09458312392234802, -0.04939742013812065, -0.0016370209632441401, -0.02045048587024212, 0.08114156872034073, -0.0741291344165802, -0.08212123811244965, 0.10396842658519745, 0.08046229928731918, -0.05731653794646263, -0.08155529946088791, 0.04699217900633812, -0.07328006625175476, -0.04115854203701019, 0.11141941696405411, 0.03023373894393444, 0.12169812619686127, -0.1030779778957367, 0.08407529443502426, 0.108464315533638, 0.10849445313215256, 0.06569620221853256, -0.10997407138347626, -0.012249940074980259, -0.09456302225589752, 0.11486544460058212, -0.0861053392291069, 0.029527029022574425, 0.1121998056769371, -0.11891031265258789], [-0.04140257462859154, 0.10298291593790054, -0.013303598389029503, -0.10066160559654236, -0.10369895398616791, 0.06826196610927582, -0.07736549526453018, -0.04168467968702316, -0.003871383611112833, -0.09485762566328049, 0.1093938797712326, 0.09149542450904846, 0.05145298317074776, 0.04660061374306679, -0.07028462737798691, -0.011491876095533371, 0.035868629813194275, -0.0606948621571064, -0.1167566329240799, 0.0481412447988987, -0.04608456417918205, -0.10583432018756866, 0.040649786591529846, -0.009727266617119312, -0.023694563657045364, 0.06166723743081093, 0.028907738626003265, -0.10298509895801544, -0.046688444912433624, 0.028369717299938202, 0.08048231899738312, 0.11502116173505783, -0.03169996663928032, -0.030271459370851517, 0.09499884396791458, -0.035173449665308, -0.08127641677856445, -0.06990727037191391, -0.04964565858244896, -0.02544853463768959, 0.11987428367137909, 0.08497144281864166, 0.047035712748765945, -0.10693508386611938, -0.007847970351576805, -0.09742895513772964, 0.10904339700937271, 0.10011224448680878, 0.0580151192843914, -0.09971585124731064, 0.0614183135330677, 0.06896887719631195, 0.001420560642145574, 0.10515014082193375, 0.10683640092611313, -0.06827763468027115, 0.03614019975066185, 0.0011961044510826468, 0.013427610509097576, 0.11752612888813019, 0.10847608000040054, 0.0069222720339894295, 0.0358264297246933, -0.10688398778438568, -0.006792857777327299, 0.04654328525066376, -0.03672439977526665, 0.07949923723936081, -0.007032155990600586, -0.026692843064665794, 0.08982202410697937, 0.038339272141456604, -0.08211402595043182, 0.11164555698633194, -0.014294557273387909, -0.02966236136853695, -0.02602524869143963, 0.05645091086626053, -0.012267978861927986, 0.10297495871782303, -0.07451815158128738, 0.04405597597360611, 0.11177685111761093, 0.07531240582466125, -0.020738525316119194, 0.06417024880647659, 0.0018564576748758554, 0.004806903190910816, -0.05049298331141472, -0.030447088181972504, 0.09937664866447449, -0.04423685744404793, -0.03752283751964569, 0.052096351981163025, -0.11381324380636215, 0.00011951870692428201, -0.07160697132349014, 0.039712097495794296, 0.11586905270814896, 0.07670285552740097, -0.06195570528507233, -0.11800126731395721, 0.10012564063072205, 0.08202225714921951], [-0.05602885037660599, 0.014118792489171028, 0.013765369541943073, -0.11766086518764496, -0.042011406272649765, 0.0760633647441864, -0.03529973700642586, 0.05499713867902756, -0.10901933163404465, -0.04884781315922737, -0.08167209476232529, -0.10275641828775406, 0.06273060292005539, 0.07597080618143082, 0.009036819450557232, -0.0432194359600544, 0.08207713067531586, 0.09073404967784882, -0.08712208271026611, 0.077804334461689, -0.1197022795677185, 0.11084728688001633, -0.08256658911705017, -0.0018533968832343817, 0.07952500879764557, 0.0749991238117218, 0.12176451086997986, 0.02843710593879223, 0.10765740275382996, -0.09031590819358826, 0.0764925554394722, -0.04077805206179619, -0.048369184136390686, 0.06073388457298279, 0.0056780544109642506, 0.03710097447037697, 0.09769640862941742, -0.11266233026981354, -0.03930565342307091, 0.0828472375869751, -0.05807017534971237, -0.03389892354607582, 0.09315162897109985, -0.003737366758286953, -0.11120802909135818, -0.10592270642518997, 0.02311052195727825, -0.037245362997055054, -0.07526558637619019, 0.10833442211151123, -0.06908499449491501, 0.061716604977846146, -0.07611553370952606, -0.05474119633436203, 0.07483349740505219, 0.04459104686975479, -0.006466359831392765, -0.03740343451499939, 0.04181266948580742, 0.08393603563308716, 0.06296622008085251, -0.0312035009264946, -0.07533106952905655, 0.09378873556852341, 0.06699364632368088, -0.0142141692340374, -0.08499529957771301, -0.10899260640144348, -0.04769090935587883, 0.027439013123512268, -0.008401348255574703, 0.011140824295580387, 0.046380724757909775, -0.012372135184705257, 0.11532186716794968, -0.07626904547214508, 0.012148139998316765, -0.07213591039180756, -0.0030099153518676758, -0.10194160789251328, 0.060370489954948425, -0.06543203443288803, 0.009998447261750698, 0.009861981496214867, 0.06426630914211273, -0.10103049129247665, 0.09235461056232452, -0.08270728588104248, -0.0016280879499390721, 0.09475862234830856, -0.11064402759075165, -0.0021627487149089575, 0.04046637564897537, -0.03244156762957573, 0.029742365702986717, 0.015594805590808392, 0.015049273148179054, 0.030276037752628326, -0.11263995617628098, 0.01857370138168335, -0.039586469531059265, 0.03404282033443451, -0.015733961015939713, -0.0016338283894583583], [0.07887055724859238, -0.013430703431367874, 0.09911224246025085, -0.0779758170247078, 0.07581434398889542, -0.02106439508497715, 0.03928641229867935, 0.10457637906074524, 0.03249978646636009, -0.03528555855154991, -0.0929899513721466, -0.06618639826774597, 0.08020414412021637, -0.06949396431446075, 0.06814292818307877, -0.0278769601136446, -0.05707854777574539, 0.12080691009759903, 0.012543104588985443, -0.11258018016815186, -0.054286807775497437, -0.08101221919059753, 0.05727982521057129, -0.07135797291994095, -0.1104789674282074, 0.08766043931245804, -0.0010586396092548966, 0.10324349254369736, -0.06528519093990326, 0.047437410801649094, -0.07853717356920242, 0.04148029536008835, -0.047980133444070816, -0.09842032939195633, -0.06348837167024612, 0.057655513286590576, -0.09270640462636948, -0.11473941802978516, 0.04324687272310257, 0.05365932360291481, -0.0613548569381237, 0.10354606807231903, -0.08664239943027496, -0.04873521253466606, 0.07552450895309448, -0.02930767647922039, 0.12414511293172836, -0.10588151216506958, 0.038731649518013, 0.01592075452208519, 0.017779968678951263, 0.03898214176297188, -0.086439348757267, 0.03382429480552673, -0.09895554929971695, 0.05781306326389313, -0.09884018450975418, 0.007735657971352339, 0.020810481160879135, 0.1058136448264122, 0.023302994668483734, -0.07255218923091888, -0.09601281583309174, 0.04928074777126312, -0.048363931477069855, -0.09209003299474716, -0.06213564798235893, -0.12360043823719025, -0.005540040321648121, -0.09255946427583694, -0.03209875524044037, -0.013481304980814457, -0.03893119841814041, -0.013690643012523651, -0.02992415614426136, -0.10768011957406998, -0.08480694144964218, 0.07710472494363785, -0.04187481477856636, -0.05000707879662514, 0.011871535331010818, 0.030307576060295105, -0.07044512778520584, 0.08035881072282791, 0.017361169680953026, 0.10387863218784332, 0.10128895193338394, -0.07449305802583694, -0.003258762415498495, -0.09229961037635803, 0.12313715368509293, 0.009823190048336983, 0.040077656507492065, -0.07030650228261948, 0.10965239256620407, 0.06750252097845078, 0.012739669531583786, 0.054205626249313354, 0.09107893705368042, 0.06164632737636566, -0.05080818757414818, 0.0692109540104866, 0.0065675717778503895, -0.10296612232923508], [-0.010119999758899212, 0.03712383285164833, 0.0808449313044548, 0.08538319915533066, -0.10591670125722885, -0.12283390015363693, -0.011796563863754272, 0.025950530543923378, 0.05577675625681877, 0.10128891468048096, 0.07995448261499405, -0.08015914261341095, -0.07798869162797928, 0.046019792556762695, -0.09981447458267212, 0.06622704118490219, -0.0717424750328064, -0.09652618318796158, 0.1166045069694519, -0.009893292561173439, 0.10394132882356644, -0.051730621606111526, 0.07444912195205688, -0.05713365226984024, -0.05392719805240631, 0.003990554250776768, 0.07850190997123718, 0.012144163250923157, 0.12309645116329193, -0.017154749482870102, -0.013126022182404995, -0.09847542643547058, 0.09796634316444397, -0.09788597375154495, 0.017434552311897278, -0.07145769894123077, -0.08054672181606293, 0.09532669186592102, 0.02710805833339691, 0.00969216413795948, 0.007968815043568611, 0.11451782286167145, 0.08960480242967606, 0.08939477801322937, -0.10123954713344574, 0.10295704007148743, -0.03783409669995308, -0.04226752743124962, -0.02224242314696312, -0.10340184718370438, -0.11922850459814072, -0.0452849417924881, -0.047832783311605453, 0.07076039910316467, 0.11975643783807755, 0.04773207753896713, 0.11794859170913696, -0.0032006900291889906, -0.015599737875163555, -0.013946947641670704, 0.09765515476465225, 0.1162261813879013, -0.07071015238761902, -0.07908207178115845, 0.12247184664011002, -0.08697338402271271, 0.03577258065342903, -0.07537546008825302, 0.01374822948127985, 0.08079563081264496, -0.00012928812066093087, 0.10452771931886673, 0.09818452596664429, 0.04997848719358444, -0.07609452307224274, -0.1126527488231659, -0.08814600855112076, 0.1041780561208725, 0.023429814726114273, 0.04233413562178612, -0.030618716031312943, 0.05605946108698845, -0.09575241804122925, 0.10222841799259186, -0.05267327278852463, -0.05599888414144516, -0.0719231516122818, 0.03322974592447281, 0.09930405765771866, -0.05127421393990517, 0.08122984319925308, -0.06587720662355423, 0.007647253572940826, -0.005557162221521139, 0.07225430756807327, -0.004037652630358934, 0.04509292542934418, -0.0953247919678688, -0.09811510145664215, -0.09047627449035645, -0.04131010174751282, -0.03936140611767769, 0.011012706905603409, 0.052415601909160614], [0.00039567731437273324, -0.11135231703519821, -0.040855180472135544, 0.0077496301382780075, 0.037482086569070816, -0.07172709703445435, -0.02432163991034031, 0.03959445282816887, -0.10320229083299637, 0.022135915234684944, -0.11882137507200241, -0.0584070198237896, 0.08630587160587311, 0.09504330903291702, 0.00046537979505956173, -0.043765559792518616, -0.018227865919470787, -0.08598922938108444, 0.1224752739071846, -0.034972839057445526, 0.041914183646440506, 0.0349753201007843, 0.09111811220645905, -0.09662875533103943, -0.10244833678007126, -0.019620394334197044, 0.11719030886888504, -0.10875052958726883, -0.0003080822934862226, 0.02249177359044552, -0.058203138411045074, 0.047657232731580734, 0.04486288130283356, 0.047389499843120575, -0.10743556171655655, -0.054649271070957184, 0.02990569733083248, -0.03901471570134163, -0.10646217316389084, -0.02673710137605667, 0.03684799745678902, 0.0659470409154892, -0.09298472851514816, -0.06077274680137634, 0.09340621531009674, -0.05846264585852623, -0.027004845440387726, 0.01802898198366165, 0.12053705751895905, -0.08196542412042618, 0.052346739917993546, -0.07141443341970444, -0.028208237141370773, -0.00838981568813324, -0.10127221792936325, -0.024922696873545647, 0.07228244096040726, 0.10245182365179062, -0.03970995545387268, 0.006771297659724951, -0.05781958997249603, 0.025669602677226067, -0.08148518949747086, -0.09801296144723892, 0.062201183289289474, 0.02861492708325386, 0.06919542700052261, 0.09481477737426758, 0.0004052518343087286, 4.663709842134267e-05, -0.12353669852018356, 0.029792558401823044, -0.1142468973994255, -0.059638794511556625, 0.00947576854377985, 0.007249981630593538, -0.032959774136543274, -0.12396933883428574, 0.03203388676047325, -0.07313902676105499, -0.06629057973623276, -0.11771731823682785, -0.07715796679258347, -0.11898641288280487, 0.02995968982577324, -0.013737883418798447, -0.032833799719810486, -0.05098721757531166, -0.08706546574831009, -0.11911975592374802, 0.024944154545664787, -0.06692013889551163, 0.006933051161468029, -0.006457620766013861, -0.05088021978735924, -0.07470638304948807, -0.01247231662273407, -0.011753515340387821, 0.09510526061058044, 0.016239890828728676, 0.08942475914955139, -0.02984730526804924, -0.03641892224550247, -0.06757115572690964], [0.04521441087126732, 0.08228692412376404, -0.11927763372659683, -0.022703351452946663, -0.04438457638025284, 0.0009140296606346965, 0.08281081169843674, 0.06270978599786758, -0.09158450365066528, 0.07199319452047348, 0.08253811299800873, -0.047388605773448944, 0.037117645144462585, 0.0175463929772377, -0.007938353344798088, 0.003030919237062335, -0.03459830954670906, -0.0947483479976654, 0.07449032366275787, 